{"learner":{"attributes":{"scikit_learn":"{\"use_label_encoder\": true, \"n_estimators\": 100, \"objective\": \"binary:logistic\", \"max_depth\": 5, \"learning_rate\": 0.08, \"verbosity\": null, \"booster\": null, \"tree_method\": null, \"gamma\": null, \"min_child_weight\": null, \"max_delta_step\": null, \"subsample\": null, \"colsample_bytree\": null, \"colsample_bylevel\": null, \"colsample_bynode\": null, \"reg_alpha\": null, \"reg_lambda\": null, \"scale_pos_weight\": null, \"base_score\": null, \"missing\": NaN, \"num_parallel_tree\": null, \"kwargs\": {}, \"random_state\": null, \"n_jobs\": -1, \"monotone_constraints\": null, \"interaction_constraints\": null, \"importance_type\": \"gain\", \"gpu_id\": null, \"validate_parameters\": null, \"classes_\": [0, 1], \"n_classes_\": 2, \"_le\": {\"classes_\": [0, 1]}, \"_estimator_type\": \"classifier\"}"},"feature_names":["gender","SeniorCitizen","Partner","Dependents","tenure","PhoneService","PaperlessBilling","MonthlyCharges","TotalCharges","MultipleLines_No","MultipleLines_No_phone_service","MultipleLines_Yes","InternetService_DSL","InternetService_Fiber_optic","InternetService_No","OnlineSecurity_No","OnlineSecurity_No_internet_service","OnlineSecurity_Yes","OnlineBackup_No","OnlineBackup_No_internet_service","OnlineBackup_Yes","DeviceProtection_No","DeviceProtection_No_internet_service","DeviceProtection_Yes","TechSupport_No","TechSupport_No_internet_service","TechSupport_Yes","StreamingTV_No","StreamingTV_No_internet_service","StreamingTV_Yes","StreamingMovies_No","StreamingMovies_No_internet_service","StreamingMovies_Yes","Contract_Month_to_month","Contract_One_year","Contract_Two_year","PaymentMethod_Bank_transfer__automatic_","PaymentMethod_Credit_card__automatic_","PaymentMethod_Electronic_check","PaymentMethod_Mailed_check"],"feature_types":["int","float","int","int","float","int","int","float","float","int","int","int","int","int","int","int","int","int","int","int","int","int","int","int","int","int","int","int","int","int","int","int","int","int","int","int","int","int","int","int"],"gradient_booster":{"model":{"gbtree_model_param":{"num_trees":"100","size_leaf_vector":"0"},"tree_info":[0,0,0,0,0,0,0,0,0,0,0,0,0,0,0,0,0,0,0,0,0,0,0,0,0,0,0,0,0,0,0,0,0,0,0,0,0,0,0,0,0,0,0,0,0,0,0,0,0,0,0,0,0,0,0,0,0,0,0,0,0,0,0,0,0,0,0,0,0,0,0,0,0,0,0,0,0,0,0,0,0,0,0,0,0,0,0,0,0,0,0,0,0,0,0,0,0,0,0,0],"trees":[{"base_weights":[-9.347696E-1,-1.7277278E0,-2.8989434E-1,-1.840708E0,-1.3738191E0,-8.749252E-1,1.9367589E-1,-1.9390048E0,-1.713163E0,-1.6721312E0,-1.0712401E0,-3.2112676E-1,-1.2787565E0,7.633434E-1,-3.5362318E-1,-1.8204081E0,-1.4146341E0,2.2222222E-1,-1.700831E0,-1.0991957E0,4E-1,-7.9096043E-1,1.4444445E-1,-7.966102E-1,-1.4270123E0,1.4260869E0,5.606258E-1,-7.036247E-1,-6.315789E-2,-1.8703403E0,-1.5081967E0,-7.586207E-1,-1.4656489E0,-0E0,-1.1357341E0,-4.6327683E-1,-1.0939226E0,2.658228E-1,-6.666667E-1,-5.4054055E-2,-9.162561E-1,-1.5971897E0,-1.1741935E0,-3.3333334E-1,1.4954954E0,-2.0338982E-1,6.9525266E-1,-5.4545456E-1,-1.2727273E0,2.6440677E-1,-4.0860215E-1],"categories":[],"categories_nodes":[],"categories_segments":[],"categories_sizes":[],"default_left":[true,true,true,true,true,true,true,false,true,true,true,true,true,true,true,true,true,false,false,true,false,true,true,true,true,true,true,true,true,false,false,false,false,false,false,false,false,false,false,false,false,false,false,false,false,false,false,false,false,false,false],"id":0,"left_children":[1,3,5,7,9,11,13,-1,15,17,19,21,23,25,27,29,31,-1,-1,33,-1,35,37,39,41,43,45,47,49,-1,-1,-1,-1,-1,-1,-1,-1,-1,-1,-1,-1,-1,-1,-1,-1,-1,-1,-1,-1,-1,-1],"loss_changes":[8.5398E2,2.7429688E1,2.6121863E2,3.7617188E0,1.4929962E1,9.301544E1,1.5802986E2,0E0,5.572815E0,5.3526306E0,4.336685E0,3.8940784E1,1.6108002E1,3.2552826E1,2.626094E1,4.3762207E-2,1.2893219E0,0E0,0E0,3.7451859E0,0E0,8.279114E0,9.037833E0,5.1922607E0,6.0087585E0,7.5203323E0,1.9864239E1,9.860046E0,1.6232674E1,0E0,0E0,0E0,0E0,0E0,0E0,0E0,0E0,0E0,0E0,0E0,0E0,0E0,0E0,0E0,0E0,0E0,0E0,0E0,0E0,0E0,0E0],"parents":[2147483647,0,0,1,1,2,2,3,3,4,4,5,5,6,6,8,8,9,9,10,10,11,11,12,12,13,13,14,14,15,15,16,16,19,19,21,21,22,22,23,23,24,24,25,25,26,26,27,27,28,28],"right_children":[2,4,6,8,10,12,14,-1,16,18,20,22,24,26,28,30,32,-1,-1,34,-1,36,38,40,42,44,46,48,50,-1,-1,-1,-1,-1,-1,-1,-1,-1,-1,-1,-1,-1,-1,-1,-1,-1,-1,-1,-1,-1,-1],"split_conditions":[5E-1,9.3675E1,5E-1,5E-1,5E-1,5.5E0,1.55E1,-1.5512037E-1,5E-1,9.4175E1,7.96105E3,5E-1,5E-1,1.2E2,5E-1,5E-1,1.166325E3,1.7777778E-2,-1.3606648E-1,1.95E1,3.2E-2,1.5E0,5.5225E1,3.303E2,5E-1,5E-1,7.4125E1,5.15E1,3.0836E3,-1.4962722E-1,-1.2065574E-1,-6.0689654E-2,-1.1725191E-1,-0E0,-9.085873E-2,-3.7062146E-2,-8.7513804E-2,2.1265823E-2,-5.3333335E-2,-4.3243244E-3,-7.330049E-2,-1.2777518E-1,-9.3935475E-2,-2.6666667E-2,1.19639635E-1,-1.6271185E-2,5.5620212E-2,-4.3636363E-2,-1.01818174E-1,2.1152541E-2,-3.268817E-2],"split_indices":[33,7,13,34,34,4,4,0,32,7,8,24,5,8,38,38,8,0,0,4,0,4,7,8,18,24,7,4,8,0,0,0,0,0,0,0,0,0,0,0,0,0,0,0,0,0,0,0,0,0,0],"split_type":[0,0,0,0,0,0,0,0,0,0,0,0,0,0,0,0,0,0,0,0,0,0,0,0,0,0,0,0,0,0,0,0,0,0,0,0,0,0,0,0,0,0,0,0,0,0,0,0,0,0,0],"sum_hessian":[1.67E3,7.4825E2,9.2175E2,5.64E2,1.8425E2,4.1675E2,5.05E2,3.105E2,2.535E2,9.05E1,9.375E1,1.765E2,2.4025E2,2.4725E2,2.5775E2,1.8275E2,7.075E1,1.25E0,8.925E1,9.225E1,1.5E0,8.75E1,8.9E1,5.8E1,1.8225E2,5.65E1,1.9075E2,1.1625E2,1.415E2,1.5325E2,2.95E1,6.25E0,6.45E1,3E0,8.925E1,4.325E1,4.425E1,7.8E1,1.1E1,8.25E0,4.975E1,1.0575E2,7.65E1,2E0,5.45E1,2.85E1,1.6225E2,9.25E1,2.375E1,7.275E1,6.875E1],"tree_param":{"num_deleted":"0","num_feature":"40","num_nodes":"51","size_leaf_vector":"0"}},{"base_weights":[-8.633829E-1,-1.5985639E0,-2.6760468E-1,-1.7039839E0,-1.2690856E0,-8.076013E-1,1.7830737E-1,-1.7558463E0,-1.4976599E0,-1.5468214E0,-9.8814327E-1,-2.9652846E-1,-1.1810608E0,7.274646E-1,-3.059165E-1,-9.754403E-1,-1.5586859E0,2.1235532E-1,-1.5736601E0,-1.2321417E0,-7.769392E-1,-7.492555E-1,1.3213538E-1,-7.35057E-1,-1.3184998E0,1.3182205E0,5.362845E-1,-6.26945E-1,-4.12807E-2,-1.1397227E0,7.517291E-2,-4.5486987E-1,-1.5728228E0,-1.1902831E0,-1.634186E0,-1.5384616E-1,-1.289064E0,-4.8959118E-1,-1.0675164E0,-9.438579E-1,-3.839928E-1,2.5269434E-1,-6.039492E-1,-5.0197385E-2,-8.455446E-1,-1.4767382E0,-1.0838951E0,-3.1559396E-1,1.3829998E0,8.8588184E-1,2.2615463E-1,-8.1306386E-1,-1.5638126E-1,8.2886234E-2,-8.333379E-1],"categories":[],"categories_nodes":[],"categories_segments":[],"categories_sizes":[],"default_left":[true,true,true,true,true,true,true,false,true,true,true,true,true,true,true,true,true,false,true,true,true,true,true,true,true,true,true,true,true,false,false,false,false,false,false,false,false,false,false,false,false,false,false,false,false,false,false,false,false,false,false,false,false,false,false],"id":1,"left_children":[1,3,5,7,9,11,13,-1,15,17,19,21,23,25,27,29,31,-1,33,35,37,39,41,43,45,47,49,51,53,-1,-1,-1,-1,-1,-1,-1,-1,-1,-1,-1,-1,-1,-1,-1,-1,-1,-1,-1,-1,-1,-1,-1,-1,-1,-1],"loss_changes":[7.2934033E2,2.3734985E1,2.2203625E2,3.383545E0,1.2879608E1,7.9234406E1,1.3465477E2,0E0,2.2937012E0,4.6348267E0,3.9160004E0,3.452349E1,1.3778229E1,2.6081001E1,2.2857773E1,2.7082682E0,9.30603E-1,0E0,1.3949585E-1,2.3900146E0,3.935749E0,5.7804146E0,8.313597E0,4.4169426E0,5.180023E0,6.5014725E0,1.9410831E1,1.05262985E1,1.4695152E1,0E0,0E0,0E0,0E0,0E0,0E0,0E0,0E0,0E0,0E0,0E0,0E0,0E0,0E0,0E0,0E0,0E0,0E0,0E0,0E0,0E0,0E0,0E0,0E0,0E0,0E0],"parents":[2147483647,0,0,1,1,2,2,3,3,4,4,5,5,6,6,8,8,9,9,10,10,11,11,12,12,13,13,14,14,15,15,16,16,18,18,19,19,20,20,21,21,22,22,23,23,24,24,25,25,26,26,27,27,28,28],"right_children":[2,4,6,8,10,12,14,-1,16,18,20,22,24,26,28,30,32,-1,34,36,38,40,42,44,46,48,50,52,54,-1,-1,-1,-1,-1,-1,-1,-1,-1,-1,-1,-1,-1,-1,-1,-1,-1,-1,-1,-1,-1,-1,-1,-1,-1,-1],"split_conditions":[5E-1,9.3675E1,5E-1,5E-1,5E-1,5.5E0,1.45E1,-1.404677E-1,1.20425E3,9.4175E1,1.0225E2,5E-1,5E-1,1.2E2,5E-1,5E-1,3.5075E1,1.6988425E-2,5.85E1,1.95E1,6.4485996E3,5E-1,2.01625E2,3.303E2,5E-1,5E-1,5E-1,5E-1,5.55E1,-9.117781E-2,6.0138325E-3,-3.638959E-2,-1.2582582E-1,-9.5222645E-2,-1.3073488E-1,-1.2307692E-2,-1.03125125E-1,-3.9167292E-2,-8.540131E-2,-7.550863E-2,-3.0719422E-2,2.0215547E-2,-4.8315935E-2,-4.0157908E-3,-6.764357E-2,-1.1813905E-1,-8.671161E-2,-2.5247516E-2,1.1063998E-1,7.087055E-2,1.809237E-2,-6.504511E-2,-1.2510501E-2,6.6308985E-3,-6.666703E-2],"split_indices":[33,7,13,15,34,4,4,0,8,7,7,15,5,8,38,11,7,0,4,4,8,6,8,8,18,24,9,1,4,0,0,0,0,0,0,0,0,0,0,0,0,0,0,0,0,0,0,0,0,0,0,0,0,0,0],"split_type":[0,0,0,0,0,0,0,0,0,0,0,0,0,0,0,0,0,0,0,0,0,0,0,0,0,0,0,0,0,0,0,0,0,0,0,0,0,0,0,0,0,0,0,0,0,0,0,0,0,0,0,0,0,0,0],"sum_hessian":[1.6651187E3,7.446048E2,9.205139E2,5.6095105E2,1.8365375E2,4.1596814E2,5.045458E2,4.4227008E2,1.1868094E2,9.008808E1,9.3565674E1,1.763839E2,2.3958423E2,2.3618573E2,2.6836008E2,1.4194862E1,1.0448608E2,1.2499012E0,8.883818E1,4.116962E1,5.239605E1,8.5420456E1,9.096345E1,5.7933193E1,1.8165103E2,5.6305084E1,1.7988065E2,1.2064141E2,1.4771866E2,1.2202037E1,1.992826E0,1.7407783E0,1.027453E2,1.4930786E1,7.3907394E1,2.25E0,3.891962E1,2.7694353E1,2.4701698E1,5.4695873E1,3.0724585E1,7.872607E1,1.2237375E1,8.249962E0,4.968323E1,1.0531954E2,7.633148E1,1.9996446E0,5.430544E1,8.368703E1,9.619362E1,8.592732E1,3.471409E1,1.284738E2,1.9244858E1],"tree_param":{"num_deleted":"0","num_feature":"40","num_nodes":"55","size_leaf_vector":"0"}},{"base_weights":[-8.015997E-1,-1.4919629E0,-2.4751666E-1,-1.592247E0,-1.1804545E0,-7.478381E-1,1.6453052E-1,-1.6841466E0,-1.4737629E0,-1.4433715E0,-9.164356E-1,-2.7398232E-1,-1.096204E0,6.5184605E-1,-3.022451E-1,-1.5749705E0,-1.194979E0,2.0294371E-1,-1.4688401E0,-9.429365E-1,4.32218E-1,-6.923451E-1,1.21296376E-1,-6.796317E-1,-1.2253363E0,1.2258841E0,4.780688E-1,-6.0101855E-1,-5.4906406E-2,-1.6221391E0,-1.2850841E0,-6.2961864E-1,-1.2396517E0,-1.1104271E0,-1.5255654E0,-1.091392E0,-6.583953E-1,-3.98749E-1,-9.3095565E-1,3.7799606E-1,-2.0042066E-1,-4.6616133E-2,-7.8211266E-1,-1.3751897E0,-1.0044055E0,-2.9886582E-1,1.2869662E0,-2.0823172E-1,5.9946394E-1,-4.5284694E-1,-1.1380334E0,2.370471E-1,-3.6300343E-1],"categories":[],"categories_nodes":[],"categories_segments":[],"categories_sizes":[],"default_left":[true,true,true,true,true,true,true,false,true,true,true,true,true,true,true,true,true,false,true,true,false,true,true,true,true,true,true,true,true,false,false,false,false,false,false,false,false,false,false,false,false,false,false,false,false,false,false,false,false,false,false,false,false],"id":2,"left_children":[1,3,5,7,9,11,13,-1,15,17,19,21,23,25,27,29,31,-1,33,35,-1,37,39,41,43,45,47,49,51,-1,-1,-1,-1,-1,-1,-1,-1,-1,-1,-1,-1,-1,-1,-1,-1,-1,-1,-1,-1,-1,-1,-1,-1],"loss_changes":[6.320442E2,2.1109985E1,1.8945044E2,3.548584E0,1.1386124E1,6.819557E1,1.1493862E2,0E0,5.169739E0,4.071518E0,3.770401E0,2.9377205E1,1.201297E1,2.4063637E1,1.905705E1,3.7963867E-1,1.005394E0,0E0,1.1026001E-1,3.1926575E0,0E0,5.6678886E0,7.6679764E0,3.7750072E0,4.6127014E0,5.673065E0,1.6064407E1,8.78632E0,1.2897641E1,0E0,0E0,0E0,0E0,0E0,0E0,0E0,0E0,0E0,0E0,0E0,0E0,0E0,0E0,0E0,0E0,0E0,0E0,0E0,0E0,0E0,0E0,0E0,0E0],"parents":[2147483647,0,0,1,1,2,2,3,3,4,4,5,5,6,6,8,8,9,9,10,10,11,11,12,12,13,13,14,14,15,15,16,16,18,18,19,19,21,21,22,22,23,23,24,24,25,25,26,26,27,27,28,28],"right_children":[2,4,6,8,10,12,14,-1,16,18,20,22,24,26,28,30,32,-1,34,36,-1,38,40,42,44,46,48,50,52,-1,-1,-1,-1,-1,-1,-1,-1,-1,-1,-1,-1,-1,-1,-1,-1,-1,-1,-1,-1,-1,-1,-1,-1],"split_conditions":[5E-1,9.3675E1,5E-1,5E-1,5E-1,5.5E0,1.55E1,-1.3473172E-1,5E-1,9.4175E1,7.96105E3,5E-1,5E-1,1.2E2,5E-1,5E-1,1.166325E3,1.6235497E-2,5.85E1,5E-1,3.4577437E-2,3.34E1,8.17E1,3.303E2,5E-1,5E-1,7.4125E1,5.15E1,3.0836E3,-1.2977113E-1,-1.02806725E-1,-5.036949E-2,-9.917213E-2,-8.883417E-2,-1.2204523E-1,-8.7311365E-2,-5.2671622E-2,-3.1899918E-2,-7.447645E-2,3.0239685E-2,-1.6033653E-2,-3.7292906E-3,-6.2569015E-2,-1.1001517E-1,-8.035244E-2,-2.3909265E-2,1.0295729E-1,-1.6658537E-2,4.7957115E-2,-3.6227755E-2,-9.104267E-2,1.8963767E-2,-2.9040273E-2],"split_indices":[33,7,13,34,34,4,4,0,32,7,8,15,5,8,38,38,8,0,4,38,0,8,8,8,18,24,7,4,8,0,0,0,0,0,0,0,0,0,0,0,0,0,0,0,0,0,0,0,0,0,0,0,0],"split_type":[0,0,0,0,0,0,0,0,0,0,0,0,0,0,0,0,0,0,0,0,0,0,0,0,0,0,0,0,0,0,0,0,0,0,0,0,0,0,0,0,0,0,0,0,0,0,0,0,0,0,0,0,0],"sum_hessian":[1.6522883E3,7.349189E2,9.1736945E2,5.5283344E2,1.8208548E2,4.1393765E2,5.0343182E2,3.039035E2,2.4892993E2,8.899497E1,9.309051E1,1.761376E2,2.3780006E2,2.4610292E2,2.573289E2,1.7921834E2,6.971158E1,1.2496223E0,8.774535E1,9.1591576E1,1.498931E0,8.520506E1,9.093253E1,5.77536E1,1.8004646E2,5.5782475E1,1.9032045E2,1.1589875E2,1.4143013E2,1.5018533E2,2.9033018E1,6.210316E0,6.3501266E1,1.480117E1,7.294418E1,5.8325447E1,3.326613E1,3.9398582E1,4.5806484E1,5.0479637E1,4.0452896E1,8.249857E0,4.9503742E1,1.0416719E2,7.5879265E1,1.998653E0,5.3783825E1,2.8497292E1,1.6182315E2,9.22803E1,2.3618456E1,7.273596E1,6.8694176E1],"tree_param":{"num_deleted":"0","num_feature":"40","num_nodes":"53","size_leaf_vector":"0"}},{"base_weights":[-7.473443E-1,-1.4020222E0,-2.2941032E-1,-1.499473E0,-1.1021627E0,-6.941991E-1,1.519038E-1,-1.5889868E0,-1.3846834E0,-1.3553257E0,-8.50787E-1,-2.531792E-1,-1.0213375E0,6.4072776E-1,-2.4943471E-1,-1.4825639E0,-1.1172442E0,1.9396417E-1,-1.3797628E0,-1.0802516E0,-6.543083E-1,-6.4316845E-1,1.3101579E-1,-6.2936646E-1,-1.1439257E0,1.1454107E0,4.7257423E-1,-1.4099969E-1,-8.216834E-1,-1.5282149E0,-1.2043178E0,-1.2831166E0,-9.3515646E-1,-1.0394676E0,-1.4340483E0,-9.569832E-2,-1.13408E0,-3.8420323E-1,-9.3146175E-1,-3.5297167E-1,-9.143346E-1,8.226177E-3,9.0938705E-1,-6.981317E-1,1.6734642E-1,-1.287838E0,-9.33531E-1,-2.8307962E-1,1.2034683E0,2.8731966E-1,1.0008531E0,-4.1629532E-1,7.6080434E-2,-1.2325462E0,-4.714227E-1],"categories":[],"categories_nodes":[],"categories_segments":[],"categories_sizes":[],"default_left":[true,true,true,true,true,true,true,false,true,true,true,true,true,true,true,true,true,false,true,true,true,true,true,true,true,true,true,true,true,false,false,false,false,false,false,false,false,false,false,false,false,false,false,false,false,false,false,false,false,false,false,false,false,false,false],"id":3,"left_children":[1,3,5,7,9,11,13,-1,15,17,19,21,23,25,27,29,31,-1,33,35,37,39,41,43,45,47,49,51,53,-1,-1,-1,-1,-1,-1,-1,-1,-1,-1,-1,-1,-1,-1,-1,-1,-1,-1,-1,-1,-1,-1,-1,-1,-1,-1],"loss_changes":[5.538371E2,1.9435547E1,1.6203E2,3.3676758E0,1.0351608E1,5.9172394E1,9.878307E1,0E0,4.7621765E0,3.613861E0,3.5039597E0,2.6568504E1,1.0628265E1,1.8717041E1,1.7058657E1,4.0075684E-1,9.069061E-1,0E0,1.19003296E-1,2.0932808E0,3.5985832E0,6.593277E0,8.582123E0,3.321169E0,4.207962E0,4.986E0,1.6537521E1,1.4009388E1,5.7343006E0,0E0,0E0,0E0,0E0,0E0,0E0,0E0,0E0,0E0,0E0,0E0,0E0,0E0,0E0,0E0,0E0,0E0,0E0,0E0,0E0,0E0,0E0,0E0,0E0,0E0,0E0],"parents":[2147483647,0,0,1,1,2,2,3,3,4,4,5,5,6,6,8,8,9,9,10,10,11,11,12,12,13,13,14,14,15,15,16,16,18,18,19,19,20,20,21,21,22,22,23,23,24,24,25,25,26,26,27,27,28,28],"right_children":[2,4,6,8,10,12,14,-1,16,18,20,22,24,26,28,30,32,-1,34,36,38,40,42,44,46,48,50,52,54,-1,-1,-1,-1,-1,-1,-1,-1,-1,-1,-1,-1,-1,-1,-1,-1,-1,-1,-1,-1,-1,-1,-1,-1,-1,-1],"split_conditions":[5E-1,9.3675E1,5E-1,5E-1,5E-1,5.5E0,1.35E1,-1.2711893E-1,5E-1,9.4175E1,1.0225E2,5E-1,5E-1,1.2E2,5.35E1,5E-1,5E-1,1.5517133E-2,5.85E1,1.95E1,6.4485996E3,1.5E0,5E-1,5.4050003E1,5E-1,5E-1,9.0775E1,5E-1,9.5E1,-1.22257195E-1,-9.6345425E-2,-1.0264932E-1,-7.481252E-2,-8.3157405E-2,-1.1472386E-1,-7.6558655E-3,-9.0726405E-2,-3.0736258E-2,-7.451694E-2,-2.8237734E-2,-7.314677E-2,6.580941E-4,7.275096E-2,-5.5850532E-2,1.3387714E-2,-1.0302704E-1,-7.4682474E-2,-2.264637E-2,9.627746E-2,2.2985572E-2,8.0068246E-2,-3.3303626E-2,6.0864347E-3,-9.8603696E-2,-3.7713815E-2],"split_indices":[33,7,13,34,34,4,4,0,32,7,7,24,5,8,4,38,0,0,4,4,8,4,1,7,18,24,7,38,7,0,0,0,0,0,0,0,0,0,0,0,0,0,0,0,0,0,0,0,0,0,0,0,0,0,0],"split_type":[0,0,0,0,0,0,0,0,0,0,0,0,0,0,0,0,0,0,0,0,0,0,0,0,0,0,0,0,0,0,0,0,0,0,0,0,0,0,0,0,0,0,0,0,0,0,0,0,0,0,0,0,0,0,0],"sum_hessian":[1.633301E3,7.206629E2,9.1263806E2,5.408822E2,1.7978075E2,4.1092978E2,5.0170828E2,2.9668372E2,2.4419847E2,8.738393E1,9.239682E1,1.7575964E2,2.3517015E2,2.2593118E2,2.757771E2,1.7544395E2,6.875452E1,1.2491875E0,8.6134735E1,4.054584E1,5.1850975E1,8.688758E1,8.887206E1,5.7488102E1,1.7768205E2,5.501168E1,1.709195E2,2.3289279E2,4.28843E1,1.4685718E2,2.858678E1,3.281504E1,3.593948E1,1.4622175E1,7.151256E1,2.2458491E0,3.8299995E1,2.7467878E1,2.4383095E1,4.3082832E1,4.3804745E1,7.7635475E1,1.1236582E1,5.3034378E1,4.453725E0,1.0247021E2,7.5211845E1,1.9971281E0,5.3014553E1,1.2768674E2,4.3232765E1,1.0227388E2,1.3061891E2,1.8575699E1,2.4308601E1],"tree_param":{"num_deleted":"0","num_feature":"40","num_nodes":"55","size_leaf_vector":"0"}},{"base_weights":[-6.989104E-1,-1.3248581E0,-2.1276239E-1,-1.4207445E0,-1.033307E0,-6.454194E-1,1.4042588E-1,-1.4707607E0,-1.22538E0,-1.2790293E0,-7.9269904E-1,-2.3377927E-1,-9.5415914E-1,5.94363E-1,-2.3057055E-1,-6.3923097E-1,-1.4748467E0,-7.373821E-1,-1.2847339E0,1.8539484E-1,-1.302683E0,-8.1825686E-1,4.5655966E-1,-6.0437614E-1,1.1392082E-1,-5.8277434E-1,-1.0717059E0,1.0741906E0,4.3676737E-1,-1.2099269E-1,-7.2370124E-1,-9.8315716E-1,7.469726E-2,-8.990705E-1,2.091578E-1,-2.8635547E-1,-1.298834E0,-1.1725565E0,-1.4891725E0,-9.5862865E-1,-5.524425E-1,-7.860554E-1,-2.6803458E-1,2.3034586E-1,-4.7736812E-1,6.5066703E-3,-6.801074E-1,-9.3842864E-1,-1.29938E0,-2.6817244E-1,1.1297183E0,-4.8041154E-2,6.2081754E-1,-2.8163332E-1,2.0172818E-1,-4.0842566E-1,-1.1805979E0],"categories":[],"categories_nodes":[],"categories_segments":[],"categories_sizes":[],"default_left":[true,true,true,true,true,true,true,true,true,true,true,true,true,true,true,true,false,true,true,false,true,true,false,true,true,true,true,true,true,true,true,false,false,false,false,false,false,false,false,false,false,false,false,false,false,false,false,false,false,false,false,false,false,false,false,false,false],"id":4,"left_children":[1,3,5,7,9,11,13,15,17,19,21,23,25,27,29,31,-1,33,35,-1,37,39,-1,41,43,45,47,49,51,53,55,-1,-1,-1,-1,-1,-1,-1,-1,-1,-1,-1,-1,-1,-1,-1,-1,-1,-1,-1,-1,-1,-1,-1,-1,-1,-1],"loss_changes":[4.8994653E2,1.8214111E1,1.3883266E2,3.3485107E0,9.504669E0,5.1660233E1,8.445946E1,4.6618652E-1,2.3383942E0,3.233963E0,3.32761E0,2.2784763E1,9.545044E0,1.6579735E1,1.4839469E1,1.0047065E0,0E0,2.4299097E0,1.0328522E0,0E0,3.2000732E-1,2.8667717E0,0E0,5.013468E0,6.4292235E0,3.342434E0,4.1137085E0,4.4068184E0,1.532386E1,1.1836313E1,6.7234592E0,0E0,0E0,0E0,0E0,0E0,0E0,0E0,0E0,0E0,0E0,0E0,0E0,0E0,0E0,0E0,0E0,0E0,0E0,0E0,0E0,0E0,0E0,0E0,0E0,0E0,0E0],"parents":[2147483647,0,0,1,1,2,2,3,3,4,4,5,5,6,6,7,7,8,8,9,9,10,10,11,11,12,12,13,13,14,14,15,15,17,17,18,18,20,20,21,21,23,23,24,24,25,25,26,26,27,27,28,28,29,29,30,30],"right_children":[2,4,6,8,10,12,14,16,18,20,22,24,26,28,30,32,-1,34,36,-1,38,40,-1,42,44,46,48,50,52,54,56,-1,-1,-1,-1,-1,-1,-1,-1,-1,-1,-1,-1,-1,-1,-1,-1,-1,-1,-1,-1,-1,-1,-1,-1,-1,-1],"split_conditions":[5E-1,9.3675E1,5E-1,5E-1,5E-1,5.5E0,1.35E1,3.7075E1,1.20425E3,9.4175E1,7.96105E3,5E-1,5E-1,1.2E2,5.15E1,1.5E0,-1.1798774E-1,5E-1,3.5075E1,1.4831587E-2,7.15E1,5E-1,3.6524773E-2,5E-1,5.5225E1,3.303E2,2.25E1,5E-1,7.5675E1,5E-1,5E-1,-7.865257E-2,5.975781E-3,-7.192564E-2,1.6732624E-2,-2.2908436E-2,-1.0390671E-1,-9.3804516E-2,-1.1913379E-1,-7.6690294E-2,-4.41954E-2,-6.288443E-2,-2.1442765E-2,1.8427668E-2,-3.818945E-2,5.205336E-4,-5.440859E-2,-7.507429E-2,-1.03950396E-1,-2.1453794E-2,9.0377465E-2,-3.8432921E-3,4.9665403E-2,-2.2530666E-2,1.6138254E-2,-3.267405E-2,-9.444783E-2],"split_indices":[33,7,13,15,34,4,4,8,8,7,8,15,5,8,4,4,0,11,7,0,4,38,0,6,7,8,4,24,7,1,27,0,0,0,0,0,0,0,0,0,0,0,0,0,0,0,0,0,0,0,0,0,0,0,0,0,0],"split_type":[0,0,0,0,0,0,0,0,0,0,0,0,0,0,0,0,0,0,0,0,0,0,0,0,0,0,0,0,0,0,0,0,0,0,0,0,0,0,0,0,0,0,0,0,0,0,0,0,0,0,0,0,0,0,0,0,0],"sum_hessian":[1.6099867E3,7.0304486E2,9.069418E2,5.2613446E2,1.7691043E2,4.0724164E2,4.997001E2,4.1369452E2,1.1243995E2,8.538978E1,9.152066E1,1.7528833E2,2.3195332E2,2.244588E2,2.752413E2,2.792753E0,4.1090176E2,1.3648433E1,9.879151E1,1.2486182E0,8.414116E1,9.002392E1,1.4967376E0,8.4493034E1,9.079529E1,5.7197536E1,1.7475578E2,5.4056896E1,1.704019E2,2.2621889E2,4.9022415E1,1.6302776E0,1.1624755E0,1.16999855E1,1.9484465E0,1.6725501E0,9.7118965E1,5.3852272E1,3.028889E1,5.7207355E1,3.2816563E1,5.3991665E1,3.0501371E1,7.63687E1,1.4426594E1,8.240493E0,4.8957043E1,1.1345979E2,6.129599E1,1.9951596E0,5.2061737E1,4.7092915E1,1.2330899E2,1.5112218E2,7.50967E1,3.0127344E1,1.8895071E1],"tree_param":{"num_deleted":"0","num_feature":"40","num_nodes":"57","size_leaf_vector":"0"}},{"base_weights":[-6.551055E-1,-1.2569952E0,-1.976592E-1,-1.3524971E0,-9.7073466E-1,-7.3322254E-1,5.115025E-2,-1.4447068E0,-1.2360028E0,-7.200501E-1,-1.1947881E0,-8.298565E-1,-1.6024089E-1,5.0711894E-1,-1.9265541E-1,-1.3364083E0,-9.677223E-1,-9.2423975E-1,-4.2105952E-1,-9.9143267E-1,-1.3748721E0,-2.9302883E-1,-9.485176E-1,6.675403E-1,-7.4084735E-1,7.9992604E-1,1.0467001E-1,-6.849654E-1,3.951862E-2,-1.3837564E0,-1.056162E0,-1.1331383E0,-7.900054E-1,-9.786495E-1,5.157984E-1,-8.6720484E-1,-2.3708461E-1,-1.1181017E0,-5.113892E-1,-1.3908912E0,-4.0877727E-1,-5.601966E-1,1.5528186E-1,-1.1707318E0,-7.7446866E-1,8.562216E-1,-4.595847E-1,-8.356397E-1,4.6747583E-1,1.1527699E0,6.0487956E-1,3.2924727E-1,-1.7696175E-1,2.7785265E-1,-7.49901E-1,4.0652728E-1,-1.5042986E-1],"categories":[],"categories_nodes":[],"categories_segments":[],"categories_sizes":[],"default_left":[true,true,true,true,true,true,true,false,true,true,true,true,true,true,true,true,true,true,true,true,true,true,true,true,true,true,true,true,true,false,false,false,false,false,false,false,false,false,false,false,false,false,false,false,false,false,false,false,false,false,false,false,false,false,false,false,false],"id":5,"left_children":[1,3,5,7,9,11,13,-1,15,17,19,21,23,25,27,29,31,33,35,37,39,41,43,45,47,49,51,53,55,-1,-1,-1,-1,-1,-1,-1,-1,-1,-1,-1,-1,-1,-1,-1,-1,-1,-1,-1,-1,-1,-1,-1,-1,-1,-1,-1,-1],"loss_changes":[4.3604016E2,1.7388672E1,1.2016702E2,3.6970825E0,8.950424E0,1.5704514E1,6.8630455E1,0E0,4.967682E0,4.79731E0,1.9591064E0,1.5297806E1,2.092906E1,2.525903E1,4.6024273E1,7.479248E-1,1.0721703E0,4.3943863E0,2.774766E0,2.236992E0,1.3600159E-1,5.561967E0,6.8209534E0,4.2329597E0,3.3072405E0,7.8597336E0,5.859597E0,8.27467E0,1.91905E1,0E0,0E0,0E0,0E0,0E0,0E0,0E0,0E0,0E0,0E0,0E0,0E0,0E0,0E0,0E0,0E0,0E0,0E0,0E0,0E0,0E0,0E0,0E0,0E0,0E0,0E0,0E0,0E0],"parents":[2147483647,0,0,1,1,2,2,3,3,4,4,5,5,6,6,8,8,9,9,10,10,11,11,12,12,13,13,14,14,15,15,16,16,17,17,18,18,19,19,20,20,21,21,22,22,23,23,24,24,25,25,26,26,27,27,28,28],"right_children":[2,4,6,8,10,12,14,-1,16,18,20,22,24,26,28,30,32,34,36,38,40,42,44,46,48,50,52,54,56,-1,-1,-1,-1,-1,-1,-1,-1,-1,-1,-1,-1,-1,-1,-1,-1,-1,-1,-1,-1,-1,-1,-1,-1,-1,-1,-1,-1],"split_conditions":[5E-1,9.3675E1,5E-1,5E-1,6.5861E3,9.145E1,5.5E0,-1.1557654E-1,5E-1,1.03225E2,7.05E1,1.5E0,2.902E3,5E-1,7.3575E1,5E-1,5E-1,6.65E1,4.5330996E3,7.478975E3,1.17425E2,5E-1,3.0325E1,1.045E2,1.1305E2,5E-1,8.17E1,3.1090002E2,1.65E1,-1.1070051E-1,-8.449296E-2,-9.0651065E-2,-6.320043E-2,-7.829196E-2,4.126387E-2,-6.937639E-2,-1.8966768E-2,-8.944813E-2,-4.0911134E-2,-1.1127129E-1,-3.270218E-2,-4.4815727E-2,1.2422549E-2,-9.3658544E-2,-6.195749E-2,6.8497725E-2,-3.6766775E-2,-6.685118E-2,3.7398066E-2,9.2221595E-2,4.8390362E-2,2.633978E-2,-1.4156939E-2,2.2228211E-2,-5.999208E-2,3.2522183E-2,-1.2034388E-2],"split_indices":[33,7,15,34,8,7,4,0,32,7,4,4,8,12,7,38,0,4,8,8,7,6,7,7,7,9,8,8,4,0,0,0,0,0,0,0,0,0,0,0,0,0,0,0,0,0,0,0,0,0,0,0,0,0,0,0,0],"split_type":[0,0,0,0,0,0,0,0,0,0,0,0,0,0,0,0,0,0,0,0,0,0,0,0,0,0,0,0,0,0,0,0,0,0,0,0,0,0,0,0,0,0,0,0,0,0,0,0,0,0,0,0,0,0,0,0,0],"sum_hessian":[1.5835898E3,6.8307666E2,9.005131E2,5.09405E2,1.736717E2,2.8503253E2,6.154806E2,2.7797513E2,2.3142984E2,8.395335E1,8.971835E1,2.4351512E2,4.1517418E1,2.1406091E2,4.0141965E2,1.6550668E2,6.592315E1,4.864263E1,3.5310715E1,4.5191902E1,4.452645E1,4.471085E1,1.9880426E2,1.7053791E1,2.4463629E1,1.23337456E2,9.072346E1,1.2801723E2,2.7340244E2,1.3821698E2,2.7289715E1,3.1358807E1,3.4564346E1,4.718039E1,1.4622405E0,9.225311E0,2.6085405E1,3.47051E1,1.0486802E1,4.3367657E1,1.1587956E0,2.7858934E1,1.6851917E1,8.4804756E1,1.1399951E2,1.481423E1,2.2395608E0,2.2970068E1,1.4935601E0,4.2159554E1,8.117791E1,5.038036E1,4.0343098E1,7.8812323E0,1.20135994E2,9.285418E1,1.8054825E2],"tree_param":{"num_deleted":"0","num_feature":"40","num_nodes":"57","size_leaf_vector":"0"}},{"base_weights":[-6.1493164E-1,-1.1970346E0,-1.833463E-1,-1.2929999E0,-9.141663E-1,-6.836833E-1,4.753888E-2,-1.386415E0,-1.1761568E0,-1.1588335E0,-6.8195117E-1,-7.7463573E-1,-1.4826792E-1,4.7055995E-1,-1.7812873E-1,-1.2764192E0,-9.1225857E-1,1.8094853E-1,-1.1817786E0,-8.973984E-1,-5.018821E-1,-2.7121794E-1,-8.872492E-1,6.182645E-1,-6.8750596E-1,7.454232E-1,9.651672E-2,1.4286536E-2,-6.9080466E-1,-1.3239954E0,-9.991603E-1,-3.9342624E-1,-9.5728767E-1,-1.0760858E0,-1.4194721E0,6.3558626E-3,-9.5088416E-1,-3.1291226E-1,-8.334667E-1,-5.1981354E-1,1.434669E-1,-1.1044024E0,-7.1971595E-1,7.954524E-1,-4.342986E-1,-7.773575E-1,4.4459876E-1,1.08122E0,5.615055E-1,1.9347814E-1,-4.9770445E-1,-2.5292853E-1,1.8867697E-1,2.57677E-1,-7.671482E-1],"categories":[],"categories_nodes":[],"categories_segments":[],"categories_sizes":[],"default_left":[true,true,true,true,true,true,true,false,true,true,true,true,true,true,true,true,true,false,true,true,true,true,true,true,true,true,true,true,true,false,false,false,false,false,false,false,false,false,false,false,false,false,false,false,false,false,false,false,false,false,false,false,false,false,false],"id":6,"left_children":[1,3,5,7,9,11,13,-1,15,17,19,21,23,25,27,29,31,-1,33,35,37,39,41,43,45,47,49,51,53,-1,-1,-1,-1,-1,-1,-1,-1,-1,-1,-1,-1,-1,-1,-1,-1,-1,-1,-1,-1,-1,-1,-1,-1,-1,-1],"loss_changes":[3.90836E2,1.68031E1,1.0342746E2,3.7427368E0,8.9392395E0,1.3650665E1,5.8636627E1,0E0,4.797241E0,2.7333298E0,3.052433E0,1.3444275E1,1.7902393E1,2.1893818E1,3.9538475E1,7.979126E-1,1.1545639E0,0E0,5.001831E-1,1.9317207E0,2.9631433E0,4.7721176E0,6.365677E0,3.7002268E0,2.9186506E0,6.9895554E0,5.3767037E0,1.3670578E1,8.11731E0,0E0,0E0,0E0,0E0,0E0,0E0,0E0,0E0,0E0,0E0,0E0,0E0,0E0,0E0,0E0,0E0,0E0,0E0,0E0,0E0,0E0,0E0,0E0,0E0,0E0,0E0],"parents":[2147483647,0,0,1,1,2,2,3,3,4,4,5,5,6,6,8,8,9,9,10,10,11,11,12,12,13,13,14,14,15,15,16,16,18,18,19,19,20,20,21,21,22,22,23,23,24,24,25,25,26,26,27,27,28,28],"right_children":[2,4,6,8,10,12,14,-1,16,18,20,22,24,26,28,30,32,-1,34,36,38,40,42,44,46,48,50,52,54,-1,-1,-1,-1,-1,-1,-1,-1,-1,-1,-1,-1,-1,-1,-1,-1,-1,-1,-1,-1,-1,-1,-1,-1,-1,-1],"split_conditions":[5E-1,9.3675E1,5E-1,5E-1,5E-1,9.145E1,5.5E0,-1.10913195E-1,5E-1,9.4175E1,1.0225E2,1.5E0,2.902E3,5E-1,5E-1,5E-1,1.166325E3,1.4475882E-2,7.862525E3,1.95E1,6.984625E3,5E-1,3.0325E1,1.045E2,1.1305E2,5E-1,2.01625E2,5E-1,3.1090002E2,-1.0591963E-1,-7.9932824E-2,-3.14741E-2,-7.658301E-2,-8.608686E-2,-1.1355776E-1,5.08469E-4,-7.607073E-2,-2.503298E-2,-6.667733E-2,-4.158508E-2,1.1477352E-2,-8.835219E-2,-5.7577275E-2,6.363619E-2,-3.4743886E-2,-6.21886E-2,3.5567902E-2,8.64976E-2,4.4920437E-2,1.5478251E-2,-3.9816353E-2,-2.0234281E-2,1.5094157E-2,2.0614158E-2,-6.1371855E-2],"split_indices":[33,7,15,34,34,7,4,0,32,7,7,4,8,12,12,38,8,0,8,4,8,6,7,7,7,9,8,38,8,0,0,0,0,0,0,0,0,0,0,0,0,0,0,0,0,0,0,0,0,0,0,0,0,0,0],"split_type":[0,0,0,0,0,0,0,0,0,0,0,0,0,0,0,0,0,0,0,0,0,0,0,0,0,0,0,0,0,0,0,0,0,0,0,0,0,0,0,0,0,0,0,0,0,0,0,0,0,0,0,0,0,0,0],"sum_hessian":[1.5555818E3,6.615454E2,8.940363E2,4.912978E2,1.7024762E2,2.8167493E2,6.123614E2,2.6698184E2,2.2431592E2,8.095802E1,8.92896E1,2.4039209E2,4.1282833E1,2.1265247E2,3.9970895E2,1.5977585E2,6.454008E1,1.2471869E0,7.971083E1,3.883775E1,5.0451843E1,4.4567898E1,1.9582419E2,1.6987862E1,2.4294971E1,1.22005E2,9.064748E1,2.9133755E2,1.083714E2,1.3315228E2,2.6623566E1,5.9316673E0,5.8608414E1,5.900216E1,2.0708672E1,2.2192926E0,3.6618458E1,3.337509E1,1.7076752E1,2.7705482E1,1.6862417E1,8.284718E1,1.12977005E2,1.4749251E1,2.2386105E0,2.2798853E1,1.4961199E0,4.144887E1,8.055612E1,7.851093E1,1.21365385E1,1.1487163E2,1.7646593E2,7.8960986E0,1.00475296E2],"tree_param":{"num_deleted":"0","num_feature":"40","num_nodes":"55","size_leaf_vector":"0"}},{"base_weights":[-5.78105E-1,-1.1432638E0,-1.7026368E-1,-1.2402188E0,-8.625716E-1,-6.383628E-1,4.407207E-2,-1.3357121E0,-1.1221125E0,-1.1040446E0,-6.3776374E-1,-7.218131E-1,-1.2233546E-1,4.3679515E-1,-1.6480742E-1,-1.2230228E0,-8.608857E-1,1.7297354E-1,-1.1266191E0,-6.6316915E-1,5.1429147E-1,-2.5112295E-1,-8.2742757E-1,7.0552266E-1,-5.9066254E-1,2.2187854E-1,8.759514E-1,-5.983014E-1,3.5814915E-2,-1.2712609E0,-9.4683576E-1,-1.0277877E0,-6.852494E-1,-1.0102913E0,-1.3399147E0,-6.009297E-1,-1.3223382E0,-3.1492817E-1,1.1294436E0,-1.0443978E0,-6.657308E-1,8.787141E-1,-2.8096312E-1,-3.3638695E-1,-1.0428959E0,-4.9072504E-1,3.202918E-1,1.0926394E0,6.013031E-1,-7.89359E-1,-3.1738588E-1,-4.867364E-1,1.5981148E-1],"categories":[],"categories_nodes":[],"categories_segments":[],"categories_sizes":[],"default_left":[true,true,true,true,true,true,true,false,true,true,true,true,true,true,true,true,true,false,true,true,false,true,true,true,true,true,true,true,true,false,false,false,false,false,false,false,false,false,false,false,false,false,false,false,false,false,false,false,false,false,false,false,false],"id":7,"left_children":[1,3,5,7,9,11,13,-1,15,17,19,21,23,25,27,29,31,-1,33,35,-1,37,39,41,43,45,47,49,51,-1,-1,-1,-1,-1,-1,-1,-1,-1,-1,-1,-1,-1,-1,-1,-1,-1,-1,-1,-1,-1,-1,-1,-1],"loss_changes":[3.517692E2,1.6344116E1,8.913298E1,3.8393555E0,8.391983E0,1.1926125E1,5.0120834E1,0E0,4.689911E0,2.484375E0,2.950138E0,1.1720886E1,1.5941396E1,1.9824917E1,3.4722427E1,8.583069E-1,1.1742554E0,0E0,5.859299E-1,2.8015938E0,0E0,4.355796E0,6.165146E0,2.7965608E0,2.652628E0,1.02385235E1,3.4705772E0,6.5278206E0,1.7812817E1,0E0,0E0,0E0,0E0,0E0,0E0,0E0,0E0,0E0,0E0,0E0,0E0,0E0,0E0,0E0,0E0,0E0,0E0,0E0,0E0,0E0,0E0,0E0,0E0],"parents":[2147483647,0,0,1,1,2,2,3,3,4,4,5,5,6,6,8,8,9,9,10,10,11,11,12,12,13,13,14,14,15,15,16,16,18,18,19,19,21,21,22,22,23,23,24,24,25,25,26,26,27,27,28,28],"right_children":[2,4,6,8,10,12,14,-1,16,18,20,22,24,26,28,30,32,-1,34,36,-1,38,40,42,44,46,48,50,52,-1,-1,-1,-1,-1,-1,-1,-1,-1,-1,-1,-1,-1,-1,-1,-1,-1,-1,-1,-1,-1,-1,-1,-1],"split_conditions":[5E-1,9.3675E1,5E-1,5E-1,5E-1,9.3325E1,5.5E0,-1.06856965E-1,5E-1,9.4175E1,7.96105E3,1.5E0,2.66995E3,7.57E1,7.3575E1,5E-1,5E-1,1.3837883E-2,7.7555996E3,7.05E1,4.1143317E-2,5E-1,3.0325E1,1.045E2,5.620725E3,5E-1,2.3207501E2,5E-1,5E-1,-1.01700865E-1,-7.574686E-2,-8.222301E-2,-5.481995E-2,-8.08233E-2,-1.0719317E-1,-4.8074372E-2,-1.0578705E-1,-2.5194254E-2,9.035549E-2,-8.3551824E-2,-5.325846E-2,7.029712E-2,-2.247705E-2,-2.6910955E-2,-8.343167E-2,-3.9258003E-2,2.5623342E-2,8.741115E-2,4.8104245E-2,-6.3148715E-2,-2.539087E-2,-3.893891E-2,1.2784918E-2],"split_indices":[33,7,15,34,34,7,4,0,32,7,8,4,8,7,7,38,0,0,8,4,0,1,7,7,8,24,8,38,24,0,0,0,0,0,0,0,0,0,0,0,0,0,0,0,0,0,0,0,0,0,0,0,0],"split_type":[0,0,0,0,0,0,0,0,0,0,0,0,0,0,0,0,0,0,0,0,0,0,0,0,0,0,0,0,0,0,0,0,0,0,0,0,0,0,0,0,0,0,0,0,0,0,0,0,0,0,0,0,0],"sum_hessian":[1.5259902E3,6.38876E2,8.8711426E2,4.723139E2,1.6656204E2,2.7799908E2,6.091152E2,2.5545764E2,2.1685628E2,7.841889E1,8.814315E1,2.3895694E2,3.9042133E1,2.1110907E2,3.980061E2,1.537729E2,6.3083374E1,1.2464488E0,7.717245E1,8.665655E1,1.4866097E0,4.441062E1,1.9454633E2,1.392339E1,2.5118744E1,1.4275307E2,6.8356E1,1.25294426E2,2.727117E2,1.2784155E2,2.5931347E1,2.9858208E1,3.3225166E1,5.36495E1,2.3522943E1,8.092698E1,5.729566E0,4.3186565E1,1.2240554E0,8.074328E1,1.1380305E2,1.1936941E1,1.9864495E0,1.7194622E1,7.924122E0,1.6838715E1,1.2591435E2,3.6544964E1,3.1811043E1,7.3497215E1,5.179721E1,5.1740288E1,2.209714E2],"tree_param":{"num_deleted":"0","num_feature":"40","num_nodes":"53","size_leaf_vector":"0"}},{"base_weights":[-5.4390097E-1,-1.0942507E0,-1.5813692E-1,-1.1928468E0,-8.1437474E-1,-4.914589E-1,1.0633638E-1,-1.2483643E0,-9.8458797E-1,-1.0540239E0,-5.9596413E-1,-1.6421662E-1,-7.487484E-1,4.1818038E-1,-2.3059088E-1,-4.2693773E-1,-1.2529123E0,-4.8923206E-1,-1.0491844E0,1.6535887E-1,-1.0763129E0,-7.914721E-1,-4.1187307E-1,-4.4137996E-1,1.0047014E-1,-4.010699E-1,-8.64126E-1,8.9551777E-1,2.963055E-1,-3.9765504E-1,5.0582297E-2,2.7642158E-1,-8.349296E-1,-1.2731589E0,-1.0297148E0,-8.9830685E-1,3.0896148E-2,-9.3184546E-2,-1.0649455E0,-9.7052413E-1,-1.3217961E0,-1.1185849E0,-5.746118E-1,-2.3453304E-1,-8.6597633E-1,-2.266736E-1,-6.51641E-1,-1.0369313E-2,8.060966E-1,-1.02851965E-1,-5.9137195E-1,-7.25899E-1,-1.1046121E0,-3.2733172E-1,9.5139307E-1,7.0513755E-2,5.4202116E-1,-1.7907837E-1,-7.991941E-1,-3.836336E-1,2.6853514E-1],"categories":[],"categories_nodes":[],"categories_segments":[],"categories_sizes":[],"default_left":[true,true,true,true,true,true,true,true,true,true,true,true,true,true,true,true,true,true,true,false,true,true,true,true,true,true,true,true,true,true,true,false,false,false,false,false,false,false,false,false,false,false,false,false,false,false,false,false,false,false,false,false,false,false,false,false,false,false,false,false,false],"id":8,"left_children":[1,3,5,7,9,11,13,15,17,19,21,23,25,27,29,31,33,35,37,-1,39,41,43,45,47,49,51,53,55,57,59,-1,-1,-1,-1,-1,-1,-1,-1,-1,-1,-1,-1,-1,-1,-1,-1,-1,-1,-1,-1,-1,-1,-1,-1,-1,-1,-1,-1,-1,-1],"loss_changes":[3.1764767E2,1.6047058E1,7.774026E1,4.019043E0,7.946335E0,3.2718864E1,5.1811745E1,7.89978E-1,2.6951294E0,2.2655716E0,2.8415108E0,1.2733881E1,8.401985E0,1.4625973E1,1.1163836E1,1.2264516E0,2.8051758E-1,2.8875694E0,1.2241287E0,0E0,6.7951965E-1,2.3079185E0,3.6150322E0,3.6751328E0,6.992028E0,3.1290016E0,4.6127014E0,3.8349304E0,1.1357735E1,1.2927605E1,8.554879E0,0E0,0E0,0E0,0E0,0E0,0E0,0E0,0E0,0E0,0E0,0E0,0E0,0E0,0E0,0E0,0E0,0E0,0E0,0E0,0E0,0E0,0E0,0E0,0E0,0E0,0E0,0E0,0E0,0E0,0E0],"parents":[2147483647,0,0,1,1,2,2,3,3,4,4,5,5,6,6,7,7,8,8,9,9,10,10,11,11,12,12,13,13,14,14,15,15,16,16,17,17,18,18,20,20,21,21,22,22,23,23,24,24,25,25,26,26,27,27,28,28,29,29,30,30],"right_children":[2,4,6,8,10,12,14,16,18,20,22,24,26,28,30,32,34,36,38,-1,40,42,44,46,48,50,52,54,56,58,60,-1,-1,-1,-1,-1,-1,-1,-1,-1,-1,-1,-1,-1,-1,-1,-1,-1,-1,-1,-1,-1,-1,-1,-1,-1,-1,-1,-1,-1,-1],"split_conditions":[5E-1,9.3675E1,5E-1,5E-1,5E-1,5.5E0,1.75E1,3.7075E1,1.20425E3,9.4175E1,1.03225E2,5E-1,5E-1,1.2E2,9.5525E1,2.0025002E1,5E-1,5E-1,3.5075E1,1.322871E-2,7.862525E3,5E-1,5E-1,1.5E0,5E-1,5E-1,2.25E1,5E-1,8.4375E1,3.311325E3,5E-1,2.2113726E-2,-6.6794366E-2,-1.0185271E-1,-8.237718E-2,-7.1864545E-2,2.4716917E-3,-7.4547636E-3,-8.519564E-2,-7.764193E-2,-1.05743684E-1,-8.9486785E-2,-4.5968942E-2,-1.8762643E-2,-6.9278106E-2,-1.8133888E-2,-5.213128E-2,-8.29545E-4,6.4487725E-2,-8.228157E-3,-4.7309756E-2,-5.807192E-2,-8.836897E-2,-2.6186537E-2,7.611144E-2,5.6411005E-3,4.336169E-2,-1.432627E-2,-6.3935526E-2,-3.0690689E-2,2.148281E-2],"split_indices":[33,7,13,15,34,4,4,8,8,7,7,24,5,8,7,7,38,0,7,0,8,15,3,4,1,27,4,24,7,8,24,0,0,0,0,0,0,0,0,0,0,0,0,0,0,0,0,0,0,0,0,0,0,0,0,0,0,0,0,0,0],"split_type":[0,0,0,0,0,0,0,0,0,0,0,0,0,0,0,0,0,0,0,0,0,0,0,0,0,0,0,0,0,0,0,0,0,0,0,0,0,0,0,0,0,0,0,0,0,0,0,0,0,0,0,0,0,0,0,0,0,0,0,0,0],"sum_hessian":[1.4959994E3,6.157311E2,8.802684E2,4.5291415E2,1.6281694E2,3.8906378E2,4.9120456E2,3.5364526E2,9.9268875E1,7.5809616E1,8.7007324E1,1.7197276E2,2.1709102E2,2.5497269E2,2.3623187E2,2.4696205E0,3.5117566E2,1.244079E1,8.682809E1,1.245622E0,7.4563995E1,4.059518E1,4.6412144E1,8.3680374E1,8.829239E1,5.5206886E1,1.6188412E2,5.0568256E1,2.0440443E2,1.4792517E2,8.830671E1,1.0250183E0,1.4446021E0,3.1765637E2,3.3519268E1,6.5568314E0,5.883959E0,1.5203826E0,8.53077E1,5.557009E1,1.8993904E1,1.452601E1,2.6069172E1,3.4467926E1,1.1944215E1,4.243069E1,4.1249687E1,7.715778E1,1.1134602E1,2.2105827E1,3.310106E1,1.0534955E2,5.6534576E1,1.9973474E0,4.8570908E1,1.0719153E2,9.7212906E1,9.672122E1,5.1203953E1,2.925779E1,5.9048916E1],"tree_param":{"num_deleted":"0","num_feature":"40","num_nodes":"61","size_leaf_vector":"0"}},{"base_weights":[-5.1232696E-1,-1.0492098E0,-1.4707664E-1,-1.1495714E0,-7.7021664E-1,-5.6869835E-1,4.319316E-2,-1.2533126E0,-1.0241512E0,-5.37058E-1,-9.916001E-1,-6.451014E-1,-1.2945625E-1,2.536639E-1,-2.6105893E-1,-1.2704246E0,-9.3969655E-1,-1.1323168E0,-7.528143E-1,-9.1932064E-1,-3.734496E-1,-1.1922746E0,-7.7638125E-1,-3.1876475E-1,-7.816578E-1,5.5401576E-1,-5.6619495E-1,-2.736458E-2,5.082983E-1,-4.160994E-1,1.7971167E-1,-2.097381E-1,-1.0822164E0,-1.1837639E0,-8.489558E-1,-5.860337E-1,-9.489515E-1,6.1724377E-1,-1.0497408E0,-5.1097316E-1,2.3887798E-1,-2.9058433E-1,-1.209915E0,-5.2201015E-1,-1.0252644E0,-3.9243984E-1,1.2249371E0,-9.207354E-1,-5.6639546E-1,7.2818637E-1,-3.9681807E-1,-2.9884097E-1,-1.013708E0,4.0210262E-1,-2.9467192E-1,8.1125605E-1,3.8251176E-1,-9.02022E-1,-2.9050183E-1,-1.0635748E-1,4.3544805E-1],"categories":[],"categories_nodes":[],"categories_segments":[],"categories_sizes":[],"default_left":[true,true,true,true,true,true,true,true,true,true,true,true,true,true,true,false,true,true,true,true,true,true,true,true,true,true,true,true,true,true,true,false,false,false,false,false,false,false,false,false,false,false,false,false,false,false,false,false,false,false,false,false,false,false,false,false,false,false,false,false,false],"id":9,"left_children":[1,3,5,7,9,11,13,15,17,19,21,23,25,27,29,-1,31,33,35,37,39,41,43,45,47,49,51,53,55,57,59,-1,-1,-1,-1,-1,-1,-1,-1,-1,-1,-1,-1,-1,-1,-1,-1,-1,-1,-1,-1,-1,-1,-1,-1,-1,-1,-1,-1,-1,-1],"loss_changes":[2.873995E2,1.5733826E1,7.012635E1,4.369568E0,7.729164E0,9.037842E0,3.868335E1,5.831909E-2,5.080826E0,4.6685276E0,2.5691833E0,1.0057167E1,1.270829E1,2.5558544E1,1.695965E1,0E0,1.4285679E0,1.0732269E0,1.4263191E0,5.324127E0,4.9895477E0,2.8479767E-1,2.1181793E0,8.432411E0,4.3391953E0,3.0536318E0,2.7873592E0,1.970786E1,6.828495E0,1.0911959E1,4.8011103E0,0E0,0E0,0E0,0E0,0E0,0E0,0E0,0E0,0E0,0E0,0E0,0E0,0E0,0E0,0E0,0E0,0E0,0E0,0E0,0E0,0E0,0E0,0E0,0E0,0E0,0E0,0E0,0E0,0E0,0E0],"parents":[2147483647,0,0,1,1,2,2,3,3,4,4,5,5,6,6,7,7,8,8,9,9,10,10,11,11,12,12,13,13,14,14,16,16,17,17,18,18,19,19,20,20,21,21,22,22,23,23,24,24,25,25,26,26,27,27,28,28,29,29,30,30],"right_children":[2,4,6,8,10,12,14,16,18,20,22,24,26,28,30,-1,32,34,36,38,40,42,44,46,48,50,52,54,56,58,60,-1,-1,-1,-1,-1,-1,-1,-1,-1,-1,-1,-1,-1,-1,-1,-1,-1,-1,-1,-1,-1,-1,-1,-1,-1,-1,-1,-1,-1,-1],"split_conditions":[5E-1,9.3675E1,5E-1,5E-1,6.5861E3,9.145E1,1.65E1,5E-1,5E-1,5E-1,5E-1,3.5E0,2.77585E3,7.0725E1,9.5725E1,-1.01633966E-1,5E-1,5E-1,3.18595E3,1.95E1,6.117575E3,6.655925E3,7.05E1,5E-1,5E-1,1.045E2,5.620725E3,8.17E1,2.3207501E2,5E-1,5E-1,-1.6779048E-2,-8.657731E-2,-9.4701104E-2,-6.791646E-2,-4.6882696E-2,-7.591612E-2,4.93795E-2,-8.3979264E-2,-4.0877853E-2,1.9110238E-2,-2.3246745E-2,-9.6793205E-2,-4.176081E-2,-8.202115E-2,-3.1395186E-2,9.799496E-2,-7.365883E-2,-4.5311637E-2,5.825491E-2,-3.1745445E-2,-2.3907278E-2,-8.1096634E-2,3.216821E-2,-2.3573752E-2,6.490048E-2,3.060094E-2,-7.216176E-2,-2.3240145E-2,-8.508598E-3,3.483584E-2],"split_indices":[33,7,15,34,8,7,4,38,32,6,0,4,8,7,7,0,5,38,8,4,8,8,4,1,18,7,8,8,8,24,0,0,0,0,0,0,0,0,0,0,0,0,0,0,0,0,0,0,0,0,0,0,0,0,0,0,0,0,0,0,0],"split_type":[0,0,0,0,0,0,0,0,0,0,0,0,0,0,0,0,0,0,0,0,0,0,0,0,0,0,0,0,0,0,0,0,0,0,0,0,0,0,0,0,0,0,0,0,0,0,0,0,0,0,0,0,0,0,0,0,0,0,0,0,0],"sum_hessian":[1.4653883E3,5.925395E2,8.7284875E2,4.3348312E2,1.5905638E2,2.7079694E2,6.020519E2,2.3232385E2,2.0115929E2,7.913653E1,7.9919846E1,2.3027376E2,4.0523167E1,3.5597046E2,2.4608139E2,2.1741025E2,1.4913606E1,1.4155626E2,5.960302E1,2.2334372E1,5.680216E1,3.9008083E1,4.0911762E1,6.891586E1,1.613579E2,1.5694153E1,2.4829014E1,1.6963953E2,1.8633093E2,1.820881E2,6.3993275E1,2.8398914E0,1.2073714E1,1.1711523E2,2.4441038E1,3.4367397E1,2.5235622E1,1.4553385E0,2.0879032E1,4.6519745E1,1.02824135E1,1.0837742E0,3.792431E1,2.176463E1,1.9147135E1,6.64884E1,2.427462E0,9.603434E1,6.5323555E1,1.3462328E1,2.2318254E0,1.6587227E1,8.241787E0,6.488627E1,1.04753265E2,5.3067654E1,1.3326329E2,3.612866E1,1.4595946E2,3.0481024E1,3.3512253E1],"tree_param":{"num_deleted":"0","num_feature":"40","num_nodes":"61","size_leaf_vector":"0"}},{"base_weights":[-4.8267683E-1,-1.0074127E0,-1.366633E-1,-1.1102078E0,-7.280783E-1,-5.3187346E-1,4.0038876E-2,-1.2178127E0,-9.8198205E-1,-9.689592E-1,-5.1734143E-1,-6.019025E-1,-1.0871256E-1,2.888608E-1,-1.8416798E-1,-1.2352483E0,-9.034713E-1,-1.0918634E0,-7.120926E-1,1.8831952E-1,-9.920737E-1,-4.4796818E-1,-1.0721776E0,-1.9156592E-1,-6.9804204E-1,5.994921E-1,-5.0712085E-1,7.616871E-2,6.681111E-1,-4.5215234E-1,4.0524468E-2,-1.9859678E-1,-1.0458201E0,-1.1447706E0,-8.067975E-1,-8.8717383E-1,-5.343899E-1,-8.847193E-1,-1.2501291E0,-4.744037E-1,5.466012E-1,-1.264128E0,2.0361086E-3,-4.2046782E-1,1.8266226E-1,-8.649833E-1,-5.0341344E-1,-1.2910092E-1,8.095033E-1,-5.877667E-1,4.7929123E-1,2.0628744E-1,-4.7905558E-1,9.4663775E-1,5.1709396E-1,-1.2004706E-1,-6.8282384E-1,-5.307752E-1,1.6779114E-1],"categories":[],"categories_nodes":[],"categories_segments":[],"categories_sizes":[],"default_left":[true,true,true,true,true,true,true,true,true,true,true,true,true,true,true,false,true,true,true,false,true,true,true,true,true,true,true,true,true,true,true,false,false,false,false,false,false,false,false,false,false,false,false,false,false,false,false,false,false,false,false,false,false,false,false,false,false,false,false],"id":10,"left_children":[1,3,5,7,9,11,13,15,17,19,21,23,25,27,29,-1,31,33,35,-1,37,39,41,43,45,47,49,51,53,55,57,-1,-1,-1,-1,-1,-1,-1,-1,-1,-1,-1,-1,-1,-1,-1,-1,-1,-1,-1,-1,-1,-1,-1,-1,-1,-1,-1,-1],"loss_changes":[2.6062613E2,1.5574524E1,6.0543E1,4.5324097E0,7.437294E0,7.8714676E0,3.3515144E1,9.8358154E-2,4.9933624E0,2.1082382E0,2.8128967E0,8.923271E0,1.1378819E1,2.291306E1,1.90533E1,0E0,1.3342133E0,1.1338501E0,1.3670826E0,0E0,8.493347E-1,2.303958E0,1.8152542E0,3.9279737E0,5.595833E0,2.3368936E0,2.3230696E0,1.33575945E1,3.8077202E0,1.0968945E1,1.2657813E1,0E0,0E0,0E0,0E0,0E0,0E0,0E0,0E0,0E0,0E0,0E0,0E0,0E0,0E0,0E0,0E0,0E0,0E0,0E0,0E0,0E0,0E0,0E0,0E0,0E0,0E0,0E0,0E0],"parents":[2147483647,0,0,1,1,2,2,3,3,4,4,5,5,6,6,7,7,8,8,9,9,10,10,11,11,12,12,13,13,14,14,16,16,17,17,18,18,20,20,21,21,22,22,23,23,24,24,25,25,26,26,27,27,28,28,29,29,30,30],"right_children":[2,4,6,8,10,12,14,16,18,20,22,24,26,28,30,-1,32,34,36,-1,38,40,42,44,46,48,50,52,54,56,58,-1,-1,-1,-1,-1,-1,-1,-1,-1,-1,-1,-1,-1,-1,-1,-1,-1,-1,-1,-1,-1,-1,-1,-1,-1,-1,-1,-1],"split_conditions":[5E-1,9.3675E1,5E-1,5E-1,5E-1,9.3325E1,1.05E1,5E-1,5E-1,9.4175E1,5E-1,1.5E0,2.66995E3,7.5875E1,5E-1,-9.881987E-2,5E-1,5E-1,5E-1,1.5065561E-2,7.862525E3,7.96105E3,5E-1,5E-1,5E-1,5E-1,1.1305E2,3.39E2,2.3207501E2,5E-1,5E-1,-1.5887741E-2,-8.366561E-2,-9.158165E-2,-6.45438E-2,-7.09739E-2,-4.2751193E-2,-7.077754E-2,-1.0001033E-1,-3.7952296E-2,4.3728095E-2,-1.0113023E-1,1.6288868E-4,-3.3637427E-2,1.4612981E-2,-6.919866E-2,-4.0273074E-2,-1.0328073E-2,6.476026E-2,-4.7021337E-2,3.83433E-2,1.6502995E-2,-3.8324445E-2,7.573102E-2,4.1367516E-2,-9.603765E-3,-5.4625906E-2,-4.2462014E-2,1.3423291E-2],"split_indices":[33,7,15,34,34,7,4,38,32,7,30,4,8,7,38,0,5,38,0,0,8,8,38,6,30,6,7,8,8,30,6,0,0,0,0,0,0,0,0,0,0,0,0,0,0,0,0,0,0,0,0,0,0,0,0,0,0,0,0],"split_type":[0,0,0,0,0,0,0,0,0,0,0,0,0,0,0,0,0,0,0,0,0,0,0,0,0,0,0,0,0,0,0,0,0,0,0,0,0,0,0,0,0,0,0,0,0,0,0,0,0,0,0,0,0,0,0,0,0,0,0],"sum_hessian":[1.4351951E3,5.6955023E2,8.656448E2,4.141635E2,1.5538672E2,2.6683487E2,5.9880994E2,2.2056865E2,1.9359488E2,7.0828674E1,8.455804E1,2.2858401E2,3.8250843E1,2.836881E2,3.1512183E2,2.062015E2,1.4367136E1,1.3541655E2,5.8178333E1,1.2470121E0,6.9581665E1,7.676697E1,7.7910724E0,4.395798E1,1.8462604E2,1.3589547E1,2.4661297E1,1.8252489E2,1.0116322E2,1.4325423E2,1.7186758E2,2.8163664E0,1.155077E1,1.1167433E2,2.3742216E1,2.7294247E1,3.0884087E1,5.2266525E1,1.731514E1,7.52888E1,1.4781611E0,6.4599557E0,1.3311169E0,2.7198238E1,1.6759745E1,9.75279E1,8.709813E1,3.1268423E0,1.0462705E1,2.3171043E1,1.4902527E0,1.4837999E2,3.41449E1,3.3714275E1,6.7448944E1,5.9340378E1,8.391385E1,3.073367E1,1.4113393E2],"tree_param":{"num_deleted":"0","num_feature":"40","num_nodes":"59","size_leaf_vector":"0"}},{"base_weights":[-4.5477605E-1,-9.6837556E-1,-1.2695181E-1,-1.0737591E0,-6.885955E-1,-5.1509535E-1,3.6352605E-2,-1.1857312E0,-9.423857E-1,-5.578172E-1,-1.0844811E0,-3.2881102E-1,-7.949201E-1,-2.2436443E-1,2.3739246E-1,-1.2036108E0,-8.693193E-1,-1.0542717E0,-6.736252E-1,-7.8838223E-1,-4.3528637E-1,-1.1934443E0,-7.6053655E-1,-5.2365E-1,-1.6999172E-2,-9.806876E-1,-2.4525023E-1,2.1272615E-1,-3.3145094E-1,-1.5967265E-1,3.5052606E-1,-1.2081078E0,-4.74231E-1,-1.8802056E-1,-1.0118225E0,-1.0754352E0,-4.4659096E-1,-5.0869787E-1,-8.721355E-1,-9.4123554E-1,-4.690313E-1,-4.8222342E-1,5.6550264E-1,-1.2234985E0,-2.888814E-1,-8.488141E-1,-1.8732063E-1,-1.3650107E-1,-7.4007255E-1,2.8411853E-1,-2.9268867E-1,-1.1304109E0,-6.558283E-1,1.4522734E-1,-7.3879844E-1,1.0860721E-2,5.398928E-1,-6.26691E-1,-8.601576E-2,-6.7252135E-1,4.6125047E-2,6.815586E-1,2.0362976E-1],"categories":[],"categories_nodes":[],"categories_segments":[],"categories_sizes":[],"default_left":[true,true,true,true,true,true,true,true,true,true,true,true,true,true,true,true,true,true,true,true,true,true,true,true,true,true,true,true,true,true,true,false,false,false,false,false,false,false,false,false,false,false,false,false,false,false,false,false,false,false,false,false,false,false,false,false,false,false,false,false,false,false,false],"id":11,"left_children":[1,3,5,7,9,11,13,15,17,19,21,23,25,27,29,31,33,35,37,39,41,43,45,47,49,51,53,55,57,59,61,-1,-1,-1,-1,-1,-1,-1,-1,-1,-1,-1,-1,-1,-1,-1,-1,-1,-1,-1,-1,-1,-1,-1,-1,-1,-1,-1,-1,-1,-1,-1,-1],"loss_changes":[2.3669797E2,1.5413574E1,5.4511185E1,4.7102356E0,7.299965E0,1.30130005E1,3.1818735E1,1.4172363E-1,4.917923E0,2.957405E0,3.9322662E-1,9.382639E0,1.0079773E1,1.2444907E1,1.5449188E1,7.052612E-2,1.2498045E0,1.1964874E0,1.4481754E0,1.4773579E0,3.9611006E0,3.4852982E-1,4.4989824E-1,7.867531E0,5.1040134E0,2.916603E0,5.2843328E0,3.4702854E0,1.5361673E1,8.123233E0,1.2844646E1,0E0,0E0,0E0,0E0,0E0,0E0,0E0,0E0,0E0,0E0,0E0,0E0,0E0,0E0,0E0,0E0,0E0,0E0,0E0,0E0,0E0,0E0,0E0,0E0,0E0,0E0,0E0,0E0,0E0,0E0,0E0,0E0],"parents":[2147483647,0,0,1,1,2,2,3,3,4,4,5,5,6,6,7,7,8,8,9,9,10,10,11,11,12,12,13,13,14,14,15,15,16,16,17,17,18,18,19,19,20,20,21,21,22,22,23,23,24,24,25,25,26,26,27,27,28,28,29,29,30,30],"right_children":[2,4,6,8,10,12,14,16,18,20,22,24,26,28,30,32,34,36,38,40,42,44,46,48,50,52,54,56,58,60,62,-1,-1,-1,-1,-1,-1,-1,-1,-1,-1,-1,-1,-1,-1,-1,-1,-1,-1,-1,-1,-1,-1,-1,-1,-1,-1,-1,-1,-1,-1,-1,-1],"split_conditions":[5E-1,9.3675E1,5E-1,5E-1,7.05E1,1.65E1,5E-1,5E-1,5E-1,5E-1,5E-1,3.655E1,9.8600006E1,2.5E0,5E-1,9.2375E1,5E-1,5.3712246E3,3.18595E3,5E-1,7.478975E3,8.5452E3,5E-1,2.1025E1,5E-1,5E-1,4.45E1,6.3925E1,7.3675E1,5E-1,4.5E0,-9.6648626E-2,-3.793848E-2,-1.5041645E-2,-8.09458E-2,-8.603481E-2,-3.5727277E-2,-4.0695827E-2,-6.977084E-2,-7.529884E-2,-3.7522502E-2,-3.8577873E-2,4.5240212E-2,-9.787987E-2,-2.311051E-2,-6.790512E-2,-1.4985651E-2,-1.0920086E-2,-5.9205804E-2,2.2729483E-2,-2.3415092E-2,-9.043287E-2,-5.2466262E-2,1.1618187E-2,-5.9103873E-2,8.688576E-4,4.319142E-2,-5.0135277E-2,-6.881261E-3,-5.3801708E-2,3.6900037E-3,5.4524686E-2,1.629038E-2],"split_indices":[33,7,24,34,4,4,38,38,32,34,15,7,7,4,6,7,5,8,8,36,8,8,3,8,0,38,4,7,7,18,4,0,0,0,0,0,0,0,0,0,0,0,0,0,0,0,0,0,0,0,0,0,0,0,0,0,0,0,0,0,0,0,0],"split_type":[0,0,0,0,0,0,0,0,0,0,0,0,0,0,0,0,0,0,0,0,0,0,0,0,0,0,0,0,0,0,0,0,0,0,0,0,0,0,0,0,0,0,0,0,0,0,0,0,0,0,0,0,0,0,0,0,0,0,0,0,0,0,0],"sum_hessian":[1.4055477E3,5.4684937E2,8.586983E2,3.9516602E2,1.5168336E2,2.5365482E2,6.0504346E2,2.0900307E2,1.8616296E2,1.1582903E2,3.5854336E1,1.5358534E2,1.0006947E2,2.633735E2,3.4166998E2,1.9517055E2,1.3832515E1,1.293792E2,5.6783768E1,3.8309086E1,7.751994E1,2.4821264E1,1.1033073E1,9.4104034E1,5.9481304E1,7.42064E1,2.586308E1,5.1634125E1,2.1173936E2,7.567213E1,2.6599786E2,1.9332227E2,1.8482842E0,2.7939982E0,1.1038516E1,1.2428116E2,5.0980268E0,3.296129E1,2.382248E1,2.4591389E1,1.3717699E1,7.4542076E1,2.9778695E0,2.3681847E1,1.1394181E0,9.144059E0,1.8890142E0,3.4327595E1,5.977644E1,2.841494E1,3.1066364E1,4.9098064E1,2.510833E1,1.4833274E1,1.1029804E1,3.257079E1,1.9063337E1,9.541225E1,1.16327126E2,2.1020664E1,5.465146E1,8.063844E1,1.8535942E2],"tree_param":{"num_deleted":"0","num_feature":"40","num_nodes":"63","size_leaf_vector":"0"}},{"base_weights":[-4.2850792E-1,-9.3144333E-1,-1.1810478E-1,-1.0396086E0,-6.5133566E-1,-3.8704303E-1,8.956093E-2,-1.1565509E0,-9.046719E-1,-4.2606574E-1,-8.769507E-1,-1.2206174E-1,-6.061465E-1,3.355439E-1,-1.7628874E-1,-1.1749849E0,-8.369271E-1,-1.0186219E0,-6.3722146E-1,-8.05995E-1,-2.6829785E-1,-1.088584E0,-6.5591705E-1,-1.8946835E-1,6.350466E-1,-2.8760162E-1,-7.176964E-1,7.562357E-1,2.353651E-1,-5.387785E-1,-7.004157E-2,-1.1795768E0,-4.563116E-1,-1.7798267E-1,-9.7982675E-1,-1.0769589E0,-7.169852E-1,-8.143279E-1,-4.6175778E-1,6.3511664E-1,-9.386307E-1,-3.667641E-1,5.2833164E-1,-2.3009628E-1,-1.1072286E0,-4.1387022E-1,-9.0818053E-1,-4.0066385E-1,4.8021547E-2,1.2568953E0,2.7687865E-1,-3.584243E-1,4.5397756E-1,-5.8301395E-1,-9.5922035E-1,-3.723348E-1,8.134068E-1,5.103532E-1,1.0814029E-3,-8.567264E-1,-2.2378911E-1,-2.3124078E-1,2.3495233E-1],"categories":[],"categories_nodes":[],"categories_segments":[],"categories_sizes":[],"default_left":[true,true,true,true,true,true,true,true,true,true,true,true,true,true,true,true,true,true,true,true,true,true,true,true,true,true,true,true,true,true,true,false,false,false,false,false,false,false,false,false,false,false,false,false,false,false,false,false,false,false,false,false,false,false,false,false,false,false,false,false,false,false,false],"id":12,"left_children":[1,3,5,7,9,11,13,15,17,19,21,23,25,27,29,31,33,35,37,39,41,43,45,47,49,51,53,55,57,59,61,-1,-1,-1,-1,-1,-1,-1,-1,-1,-1,-1,-1,-1,-1,-1,-1,-1,-1,-1,-1,-1,-1,-1,-1,-1,-1,-1,-1,-1,-1,-1,-1],"loss_changes":[2.1505476E2,1.52552185E1,4.7696884E1,4.913513E0,7.2078705E0,2.1525719E1,3.1603731E1,1.8762207E-1,4.8348694E0,4.3744583E0,2.7280693E0,8.777758E0,7.0209503E0,1.03957405E1,8.915913E0,7.3638916E-2,1.1733637E0,1.418808E0,1.3776436E0,4.7960978E0,4.5562477E0,3.2266235E-1,1.9754353E0,7.870876E0,2.792077E0,3.0209594E0,4.3192368E0,3.3871365E0,1.3148034E1,5.070796E0,8.949934E0,0E0,0E0,0E0,0E0,0E0,0E0,0E0,0E0,0E0,0E0,0E0,0E0,0E0,0E0,0E0,0E0,0E0,0E0,0E0,0E0,0E0,0E0,0E0,0E0,0E0,0E0,0E0,0E0,0E0,0E0,0E0,0E0],"parents":[2147483647,0,0,1,1,2,2,3,3,4,4,5,5,6,6,7,7,8,8,9,9,10,10,11,11,12,12,13,13,14,14,15,15,16,16,17,17,18,18,19,19,20,20,21,21,22,22,23,23,24,24,25,25,26,26,27,27,28,28,29,29,30,30],"right_children":[2,4,6,8,10,12,14,16,18,20,22,24,26,28,30,32,34,36,38,40,42,44,46,48,50,52,54,56,58,60,62,-1,-1,-1,-1,-1,-1,-1,-1,-1,-1,-1,-1,-1,-1,-1,-1,-1,-1,-1,-1,-1,-1,-1,-1,-1,-1,-1,-1,-1,-1,-1,-1],"split_conditions":[5E-1,9.3675E1,5E-1,5E-1,6.5861E3,5.5E0,1.536325E3,5E-1,5E-1,5E-1,5E-1,5E-1,5E-1,1.2E2,5E-1,9.2375E1,5E-1,5E-1,5E-1,1.95E1,6.34045E3,6.655925E3,7.05E1,5E-1,4.365E1,5.4050003E1,2.25E1,5E-1,5E-1,9.8600006E1,9.5425E1,-9.436614E-2,-3.6504928E-2,-1.4238614E-2,-7.8386135E-2,-8.615671E-2,-5.7358816E-2,-6.514623E-2,-3.6940623E-2,5.080933E-2,-7.509045E-2,-2.9341128E-2,4.226653E-2,-1.8407702E-2,-8.857829E-2,-3.3109616E-2,-7.265444E-2,-3.205311E-2,3.8417238E-3,1.0055162E-1,2.2150291E-2,-2.8673943E-2,3.6318205E-2,-4.6641115E-2,-7.673763E-2,-2.9786784E-2,6.5072544E-2,4.0828254E-2,8.651223E-5,-6.8538114E-2,-1.7903129E-2,-1.8499263E-2,1.8796187E-2],"split_indices":[33,7,13,34,8,4,8,38,32,6,0,1,5,8,24,7,5,38,0,4,8,8,4,6,8,7,4,24,9,7,7,0,0,0,0,0,0,0,0,0,0,0,0,0,0,0,0,0,0,0,0,0,0,0,0,0,0,0,0,0,0,0,0],"split_type":[0,0,0,0,0,0,0,0,0,0,0,0,0,0,0,0,0,0,0,0,0,0,0,0,0,0,0,0,0,0,0,0,0,0,0,0,0,0,0,0,0,0,0,0,0,0,0,0,0,0,0,0,0,0,0,0,0,0,0,0,0,0,0],"sum_hessian":[1.3772654E3,5.24857E2,8.524084E2,3.7668604E2,1.4817099E2,3.710347E2,4.8137366E2,1.977424E2,1.7894362E2,7.5587524E1,7.258346E1,1.686402E2,2.023945E2,2.4989288E2,2.3148077E2,1.8442938E2,1.3313028E1,1.2351158E2,5.543204E1,2.0972881E1,5.4614647E1,3.50751E1,3.750836E1,1.5554181E2,1.3098398E1,5.342136E1,1.4897314E2,4.6802235E1,2.0309065E2,5.154628E1,1.799345E2,1.8262125E2,1.8081363E0,2.772745E0,1.0540284E1,1.013416E2,2.2169983E1,2.5774858E1,2.9657183E1,1.4483088E0,1.9524572E1,4.9086933E1,5.527714E0,1.0291576E0,3.404594E1,2.04894E1,1.7018959E1,8.196486E1,7.357695E1,3.8700352E0,9.228363E0,4.923588E1,4.1854753E0,9.783224E1,5.1140903E1,1.9907982E0,4.4811436E1,9.288706E1,1.1020359E2,2.479676E1,2.674952E1,1.1787534E2,6.2059147E1],"tree_param":{"num_deleted":"0","num_feature":"40","num_nodes":"63","size_leaf_vector":"0"}},{"base_weights":[-4.0379262E-1,-8.96414E-1,-1.0969154E-1,-1.0120918E0,-6.232253E-1,-4.5380786E-1,4.081649E-2,-1.0783292E0,-6.29842E-1,-7.38031E-1,-3.459999E-1,-5.150244E-1,-1.6735375E-2,-1.8662062E-1,2.1249054E-1,-2.007113E-1,-1.0836762E0,2.9027278E-2,-9.385968E-1,-1.3201225E-1,-8.13838E-1,-7.237931E-1,-1.6010134E-1,-4.1485038E-1,-7.912591E-1,3.762619E-1,-5.248979E-1,9.055405E-2,-3.507594E-1,-1.69255E-1,3.1604448E-1,-6.4385426E-1,3.3963925E-1,-1.110531E0,-8.4768194E-1,-2.9988122E-1,9.590569E-1,-9.7728556E-1,1.2575662E-1,-5.041184E-1,4.5275185E-1,-9.435747E-1,-5.929674E-1,-8.809549E-1,4.4820675E-1,4.063118E-1,-3.2579502E-1,-4.8077184E-1,4.8091328E-1,-8.2698935E-1,-1.777495E-1,1.04475E0,2.2831894E-1,-9.580302E-2,-1.1320567E0,-3.2645516E-2,6.275197E-1,-5.4241186E-1,-7.343083E-2,2.727852E-1,-4.2165878E-1,5.05234E-1,1.3186829E-1],"categories":[],"categories_nodes":[],"categories_segments":[],"categories_sizes":[],"default_left":[true,true,true,true,true,true,true,true,true,true,true,true,true,true,true,true,true,true,true,true,true,true,true,true,true,true,true,true,true,true,true,false,false,false,false,false,false,false,false,false,false,false,false,false,false,false,false,false,false,false,false,false,false,false,false,false,false,false,false,false,false,false,false],"id":13,"left_children":[1,3,5,7,9,11,13,15,17,19,21,23,25,27,29,31,33,35,37,39,41,43,45,47,49,51,53,55,57,59,61,-1,-1,-1,-1,-1,-1,-1,-1,-1,-1,-1,-1,-1,-1,-1,-1,-1,-1,-1,-1,-1,-1,-1,-1,-1,-1,-1,-1,-1,-1,-1,-1],"loss_changes":[1.9546999E2,1.5311737E1,4.385447E1,8.253662E0,4.603756E0,6.8844223E0,2.3066656E1,1.1869507E0,1.1116333E1,4.811863E0,3.1563663E0,5.9239006E0,6.7246575E0,1.15970745E1,1.3357522E1,9.465548E-1,9.425354E-1,5.9049354E0,1.6525688E0,3.0785105E0,2.1621742E0,3.1727848E0,3.183556E0,1.01465225E1,1.146946E0,1.6417923E0,3.7137556E0,6.32785E0,8.457176E0,8.19998E0,9.169914E0,0E0,0E0,0E0,0E0,0E0,0E0,0E0,0E0,0E0,0E0,0E0,0E0,0E0,0E0,0E0,0E0,0E0,0E0,0E0,0E0,0E0,0E0,0E0,0E0,0E0,0E0,0E0,0E0,0E0,0E0,0E0,0E0],"parents":[2147483647,0,0,1,1,2,2,3,3,4,4,5,5,6,6,7,7,8,8,9,9,10,10,11,11,12,12,13,13,14,14,15,15,16,16,17,17,18,18,19,19,20,20,21,21,22,22,23,23,24,24,25,25,26,26,27,27,28,28,29,29,30,30],"right_children":[2,4,6,8,10,12,14,16,18,20,22,24,26,28,30,32,34,36,38,40,42,44,46,48,50,52,54,56,58,60,62,-1,-1,-1,-1,-1,-1,-1,-1,-1,-1,-1,-1,-1,-1,-1,-1,-1,-1,-1,-1,-1,-1,-1,-1,-1,-1,-1,-1,-1,-1,-1,-1],"split_conditions":[5E-1,5E-1,5E-1,1.032E2,5E-1,5E-1,5E-1,3.7075E1,6.55145E3,2.35E1,8.245E1,2.45E1,5E-1,7.5E0,5E-1,2.0425E1,5E-1,5E-1,1.177E2,5E-1,9.5225E1,6.9E1,4.35E1,9.3425E1,1.06675E2,3.5E0,4.85E1,7.925E1,8.4100006E1,2.48675E2,8.6865E2,-5.150834E-2,2.7171139E-2,-8.8842474E-2,-6.781455E-2,-2.3990497E-2,7.672455E-2,-7.818285E-2,1.0060529E-2,-4.032947E-2,3.622015E-2,-7.5485975E-2,-4.743739E-2,-7.047639E-2,3.585654E-2,3.2504942E-2,-2.60636E-2,-3.8461745E-2,3.8473062E-2,-6.6159144E-2,-1.4219959E-2,8.3579995E-2,1.8265516E-2,-7.664242E-3,-9.0564534E-2,-2.6116413E-3,5.0201576E-2,-4.339295E-2,-5.874466E-3,2.1822814E-2,-3.37327E-2,4.0418718E-2,1.0549462E-2],"split_indices":[33,15,15,7,38,1,38,8,8,4,7,4,20,4,6,8,38,21,7,0,7,4,4,7,7,4,4,7,7,8,8,0,0,0,0,0,0,0,0,0,0,0,0,0,0,0,0,0,0,0,0,0,0,0,0,0,0,0,0,0,0,0,0],"split_type":[0,0,0,0,0,0,0,0,0,0,0,0,0,0,0,0,0,0,0,0,0,0,0,0,0,0,0,0,0,0,0,0,0,0,0,0,0,0,0,0,0,0,0,0,0,0,0,0,0,0,0,0,0,0,0,0,0,0,0,0,0,0,0],"sum_hessian":[1.3488599E3,5.0347977E2,8.4538007E2,3.5180734E2,1.5167242E2,2.5662543E2,5.8875464E2,2.982965E2,5.3510834E1,1.0607993E2,4.559249E1,2.2494167E2,3.1683762E1,2.5321002E2,3.3554462E2,2.0397537E0,2.9625677E2,1.7363619E1,3.6147213E1,1.209901E1,9.398092E1,1.4081602E1,3.1510887E1,1.6691373E2,5.8027943E1,1.8012789E1,1.3670973E1,9.434375E1,1.5886629E2,7.146363E1,2.6408096E2,1.0154396E0,1.024314E0,2.6266165E2,3.3595104E1,1.3327763E1,4.0358562E0,3.4958298E1,1.1889148E0,7.4782476E0,4.620763E0,5.7143475E1,3.683745E1,1.2635544E1,1.4460583E0,6.803019E0,2.4707869E1,1.5590367E2,1.1010053E1,5.450562E1,3.5223234E0,2.1655939E0,1.5847195E1,8.688426E0,4.982547E0,7.750131E1,1.6842434E1,9.3379196E1,6.548708E1,2.5944942E1,4.551869E1,1.2940762E2,1.3467336E2],"tree_param":{"num_deleted":"0","num_feature":"40","num_nodes":"63","size_leaf_vector":"0"}},{"base_weights":[-3.7996733E-1,-8.623604E-1,-1.01779126E-1,-9.804355E-1,-5.900284E-1,-4.3726826E-1,3.654385E-2,-1.0487024E0,-5.966763E-1,-7.024336E-1,-3.234603E-1,-2.6959017E-1,-6.950437E-1,-1.8100786E-1,2.0343873E-1,-1.9387355E-1,-1.0541571E0,2.933177E-2,-9.016732E-1,-1.2272595E-1,-7.770558E-1,-6.880087E-1,-1.480536E-1,-4.5310125E-1,-1.8543158E-2,-8.7006027E-1,-2.059844E-1,1.894094E-1,-2.7246976E-1,3.070066E-1,-1.1129302E-1,-1.0824918E0,-8.1094176E-1,-2.7965993E-1,8.807533E-1,-9.4048065E-1,1.2001957E-1,-4.768805E-1,4.1725436E-1,-1.0163143E0,-6.471616E-1,-8.4390694E-1,4.2216828E-1,9.996473E-3,-7.1984494E-1,-7.511938E-2,-6.9324803E-1,2.7819338E-1,-2.8484955E-1,-1.0239564E0,-5.5187845E-1,1.51971E-1,-6.676531E-1,-1.4280294E-1,3.4860957E-1,-5.5931515E-1,-8.2002155E-2,2.3684622E-1,8.373816E-1,-3.0435035E-1,2.0700374E-1],"categories":[],"categories_nodes":[],"categories_segments":[],"categories_sizes":[],"default_left":[true,true,true,true,true,true,true,true,true,true,true,true,true,true,true,false,true,true,true,true,true,true,true,true,true,true,true,true,true,true,true,false,false,false,false,false,false,false,false,false,false,false,false,false,false,false,false,false,false,false,false,false,false,false,false,false,false,false,false,false,false],"id":14,"left_children":[1,3,5,7,9,11,13,15,17,19,21,23,25,27,29,-1,31,33,35,37,39,41,43,45,47,49,51,53,55,57,59,-1,-1,-1,-1,-1,-1,-1,-1,-1,-1,-1,-1,-1,-1,-1,-1,-1,-1,-1,-1,-1,-1,-1,-1,-1,-1,-1,-1,-1,-1],"loss_changes":[1.7748927E2,1.4980347E1,3.9015705E1,8.177063E0,4.232891E0,1.042057E1,2.1675943E1,1.1196594E0,1.0158287E1,4.396969E0,2.8397794E0,6.917327E0,8.045555E0,8.834954E0,1.1042768E1,0E0,1.0649719E0,5.0745955E0,1.5288639E0,2.6909232E0,2.1957817E0,2.8953009E0,2.9291902E0,7.827261E0,5.1783047E0,2.884922E0,4.503063E0,2.7961686E0,1.1336069E1,9.267284E0,5.246439E0,0E0,0E0,0E0,0E0,0E0,0E0,0E0,0E0,0E0,0E0,0E0,0E0,0E0,0E0,0E0,0E0,0E0,0E0,0E0,0E0,0E0,0E0,0E0,0E0,0E0,0E0,0E0,0E0,0E0,0E0],"parents":[2147483647,0,0,1,1,2,2,3,3,4,4,5,5,6,6,7,7,8,8,9,9,10,10,11,11,12,12,13,13,14,14,16,16,17,17,18,18,19,19,20,20,21,21,22,22,23,23,24,24,25,25,26,26,27,27,28,28,29,29,30,30],"right_children":[2,4,6,8,10,12,14,16,18,20,22,24,26,28,30,-1,32,34,36,38,40,42,44,46,48,50,52,54,56,58,60,-1,-1,-1,-1,-1,-1,-1,-1,-1,-1,-1,-1,-1,-1,-1,-1,-1,-1,-1,-1,-1,-1,-1,-1,-1,-1,-1,-1,-1,-1],"split_conditions":[5E-1,5E-1,5E-1,1.032E2,5E-1,1.65E1,5E-1,3.7075E1,6.55145E3,2.35E1,8.245E1,2.9474998E1,9.8600006E1,2.5E0,2.75E1,-1.5509884E-2,5E-1,5E-1,1.177E2,5E-1,5E-1,6.9E1,6.85E1,2.1025E1,5E-1,5E-1,4.45E1,4.565E1,6.9975E1,9.4975E1,9.5425E1,-8.6599335E-2,-6.487534E-2,-2.2372793E-2,7.046026E-2,-7.523845E-2,9.601565E-3,-3.8150437E-2,3.338035E-2,-8.130514E-2,-5.1772926E-2,-6.751256E-2,3.3773463E-2,7.997178E-4,-5.7587594E-2,-6.0095508E-3,-5.5459842E-2,2.2255471E-2,-2.2787964E-2,-8.191651E-2,-4.4150274E-2,1.215768E-2,-5.3412244E-2,-1.1424235E-2,2.7888766E-2,-4.474521E-2,-6.5601724E-3,1.8947698E-2,6.6990525E-2,-2.4348028E-2,1.65603E-2],"split_indices":[33,15,24,7,38,4,38,8,8,4,7,7,7,4,4,0,38,21,7,0,6,4,4,8,0,38,4,7,7,7,7,0,0,0,0,0,0,0,0,0,0,0,0,0,0,0,0,0,0,0,0,0,0,0,0,0,0,0,0,0,0],"split_type":[0,0,0,0,0,0,0,0,0,0,0,0,0,0,0,0,0,0,0,0,0,0,0,0,0,0,0,0,0,0,0,0,0,0,0,0,0,0,0,0,0,0,0,0,0,0,0,0,0,0,0,0,0,0,0,0,0,0,0,0,0],"sum_hessian":[1.3222656E3,4.8286032E2,8.394053E2,3.3500986E2,1.4785048E2,2.4442197E2,5.9498334E2,2.8294427E2,5.2065582E1,1.0284726E2,4.5003227E1,1.4933086E2,9.509112E1,2.582558E2,3.3672754E2,2.0257635E0,2.8091852E2,1.735276E1,3.4712822E1,1.2030688E1,9.081657E1,1.3670147E1,3.1333078E1,8.580443E1,6.3526424E1,6.945621E1,2.5634907E1,5.092808E1,2.073277E2,2.5337477E2,8.335276E1,2.4851564E2,3.2402866E1,1.3224835E1,4.127924E0,3.3519135E1,1.1936868E0,7.3360686E0,4.694619E0,2.9554502E1,6.1262066E1,1.2197185E1,1.4729624E0,2.5317524E1,6.015554E0,3.3845585E1,5.1958843E1,3.002543E1,3.3500996E1,4.531863E1,2.4137575E1,1.4817197E1,1.081771E1,1.6532253E1,3.439583E1,8.1959564E1,1.2536814E2,2.2505064E2,2.8324135E1,5.1910915E1,3.1441843E1],"tree_param":{"num_deleted":"0","num_feature":"40","num_nodes":"61","size_leaf_vector":"0"}},{"base_weights":[-3.5771373E-1,-8.2979935E-1,-9.4690464E-2,-9.4744885E-1,-5.473807E-1,-4.0500075E-1,3.8757134E-2,-1.0846694E0,-7.957598E-1,-4.2296252E-1,-9.6078867E-1,-4.6223298E-1,-4.269663E-3,1.863299E-1,-1.7366607E-1,-1.1052257E0,-7.524954E-1,-9.252334E-1,-5.080095E-1,-6.5165365E-1,-3.0845743E-1,-1.0853252E0,-6.224413E-1,-4.0019807E-1,-8.952149E-1,3.610083E-1,-4.8365396E-1,1.4007563E-2,4.457183E-1,-2.9425582E-1,1.5784058E-1,-1.1264563E0,-7.390057E-1,-1.1652956E-1,-9.0377706E-1,-9.9049383E-1,-6.112213E-1,-3.3867082E-1,-7.2272354E-1,-8.2103443E-1,-3.1160498E-1,-3.5770738E-1,6.796469E-1,-1.1194594E0,-2.0697248E-1,-8.19666E-1,-2.514639E-1,-4.596496E-1,2.4962686E-1,-1.0411395E0,-5.988495E-1,9.9033517E-1,2.2154301E-1,-7.622599E-2,-1.0740161E0,3.1064418E-1,-1.5194763E-1,5.328578E-1,-1.0901088E-1,-4.2811805E-1,4.2506907E-2,-1.0694095E-1,3.946842E-1],"categories":[],"categories_nodes":[],"categories_segments":[],"categories_sizes":[],"default_left":[true,true,true,true,true,true,true,true,true,true,true,true,true,true,true,true,true,true,true,true,true,true,true,true,true,true,true,true,true,true,true,false,false,false,false,false,false,false,false,false,false,false,false,false,false,false,false,false,false,false,false,false,false,false,false,false,false,false,false,false,false,false,false],"id":15,"left_children":[1,3,5,7,9,11,13,15,17,19,21,23,25,27,29,31,33,35,37,39,41,43,45,47,49,51,53,55,57,59,61,-1,-1,-1,-1,-1,-1,-1,-1,-1,-1,-1,-1,-1,-1,-1,-1,-1,-1,-1,-1,-1,-1,-1,-1,-1,-1,-1,-1,-1,-1,-1,-1],"loss_changes":[1.6101971E2,1.4901276E1,3.4565056E1,5.9275513E0,6.7351E0,5.754318E0,1.8350029E1,3.1913757E-1,5.442749E0,2.640482E0,6.4471245E-1,5.5404663E0,5.843794E0,1.54273E1,9.642893E0,3.84964E-1,1.141109E0,1.6126785E0,1.626565E0,1.7776508E0,3.8542576E0,4.146614E-1,5.8222294E-1,7.6055965E0,5.31765E-1,1.443567E0,3.3885574E0,1.0310874E1,6.718727E0,7.969018E0,4.0984974E0,0E0,0E0,0E0,0E0,0E0,0E0,0E0,0E0,0E0,0E0,0E0,0E0,0E0,0E0,0E0,0E0,0E0,0E0,0E0,0E0,0E0,0E0,0E0,0E0,0E0,0E0,0E0,0E0,0E0,0E0,0E0,0E0],"parents":[2147483647,0,0,1,1,2,2,3,3,4,4,5,5,6,6,7,7,8,8,9,9,10,10,11,11,12,12,13,13,14,14,15,15,16,16,17,17,18,18,19,19,20,20,21,21,22,22,23,23,24,24,25,25,26,26,27,27,28,28,29,29,30,30],"right_children":[2,4,6,8,10,12,14,16,18,20,22,24,26,28,30,32,34,36,38,40,42,44,46,48,50,52,54,56,58,60,62,-1,-1,-1,-1,-1,-1,-1,-1,-1,-1,-1,-1,-1,-1,-1,-1,-1,-1,-1,-1,-1,-1,-1,-1,-1,-1,-1,-1,-1,-1,-1,-1],"split_conditions":[5E-1,9.3675E1,5E-1,5E-1,7.05E1,5E-1,1.65E1,5E-1,5E-1,5E-1,5E-1,4.15E1,5E-1,7.57E1,9.5725E1,5E-1,5E-1,5E-1,3.18595E3,5E-1,7.478975E3,1.1725E2,7.662375E3,9.3725E1,5E-1,3.5E0,4.85E1,8.17E1,5E-1,5E-1,5E-1,-9.01165E-2,-5.9120454E-2,-9.322365E-3,-7.230216E-2,-7.92395E-2,-4.8897702E-2,-2.7093666E-2,-5.7817884E-2,-6.5682754E-2,-2.4928398E-2,-2.861659E-2,5.437175E-2,-8.9556746E-2,-1.6557798E-2,-6.557328E-2,-2.0117112E-2,-3.6771968E-2,1.9970149E-2,-8.329116E-2,-4.7907956E-2,7.9226814E-2,1.7723441E-2,-6.098079E-3,-8.592129E-2,2.4851535E-2,-1.215581E-2,4.262862E-2,-8.72087E-3,-3.4249444E-2,3.4005526E-3,-8.555275E-3,3.1574734E-2],"split_indices":[33,7,15,34,4,1,4,38,32,34,15,4,20,7,7,1,5,38,8,36,8,7,8,7,38,4,4,8,3,1,0,0,0,0,0,0,0,0,0,0,0,0,0,0,0,0,0,0,0,0,0,0,0,0,0,0,0,0,0,0,0,0,0],"split_type":[0,0,0,0,0,0,0,0,0,0,0,0,0,0,0,0,0,0,0,0,0,0,0,0,0,0,0,0,0,0,0,0,0,0,0,0,0,0,0,0,0,0,0,0,0,0,0,0,0,0,0,0,0,0,0,0,0,0,0,0,0,0,0],"sum_hessian":[1.2964062E3,4.6308545E2,8.333208E2,3.2524197E2,1.3784348E2,2.4998564E2,5.8333514E2,1.675357E2,1.5770627E2,1.0751051E2,3.0332962E1,2.1861035E2,3.1375298E1,3.4428168E2,2.3905347E2,1.5558044E2,1.1955258E1,1.0723868E2,5.0467587E1,3.430502E1,7.32055E1,2.0558285E1,9.774678E0,1.928975E2,2.5712847E1,1.7947058E1,1.3428242E1,2.0749094E2,1.3679073E2,1.7537204E2,6.3681423E1,1.4509317E2,1.0487266E1,2.6375732E0,9.317685E0,8.700278E1,2.0235903E1,2.9656048E1,2.081154E1,2.1954737E1,1.2350282E1,7.0337654E1,2.8678434E0,1.9525013E1,1.0332713E0,5.592193E0,4.182485E0,1.7699696E2,1.5900536E1,1.5545511E1,1.0167336E1,2.148983E0,1.5798074E1,8.613147E0,4.815094E0,7.412476E1,1.3336618E2,1.1825423E2,1.8536509E1,1.2529597E2,5.0076073E1,3.0326313E1,3.335511E1],"tree_param":{"num_deleted":"0","num_feature":"40","num_nodes":"63","size_leaf_vector":"0"}},{"base_weights":[-3.367593E-1,-7.987986E-1,-8.794317E-2,-9.800044E-1,-6.0725486E-1,-3.9303365E-1,3.601764E-2,-1.0727643E0,-8.7949055E-1,-8.824629E-1,-3.574827E-1,-2.3457658E-1,-6.4022505E-1,-2.6330903E-1,1.4638482E-1,-9.0613693E-1,-2.2844873E-1,-9.5650876E-1,-5.8468676E-1,-2.4577524E-1,-7.610974E-1,-3.8628808E-1,-3.4084006E-3,-8.065265E-1,-1.9170985E-1,-6.150963E-1,-1.3914783E-1,4.4106433E-1,3.639872E-2,-8.527558E-2,-9.18879E-1,-6.442804E-1,2.6057163E-1,-1.0509464E0,-7.453006E-1,-8.356384E-1,-2.123347E-1,-2.6663598E-1,6.356508E-1,1.2239504E-1,-9.147248E-1,-3.6546513E-2,-5.969985E-1,3.3559945E-1,-1.9834271E-1,-9.629357E-1,-4.9421418E-1,1.3142532E-1,-6.158053E-1,5.2297693E-1,-6.8551874E-1,2.1225491E-1,-2.6000398E-1,7.2440344E-1,2.5994846E-1,-3.1245217E-1,1.4561483E-1],"categories":[],"categories_nodes":[],"categories_segments":[],"categories_sizes":[],"default_left":[true,true,true,true,true,true,true,false,true,true,true,true,true,true,true,true,true,true,true,true,true,true,true,true,true,true,true,true,true,false,false,false,false,false,false,false,false,false,false,false,false,false,false,false,false,false,false,false,false,false,false,false,false,false,false,false,false],"id":16,"left_children":[1,3,5,7,9,11,13,-1,15,17,19,21,23,25,27,29,31,33,35,37,39,41,43,45,47,49,51,53,55,-1,-1,-1,-1,-1,-1,-1,-1,-1,-1,-1,-1,-1,-1,-1,-1,-1,-1,-1,-1,-1,-1,-1,-1,-1,-1,-1,-1],"loss_changes":[1.4623572E2,1.4861755E1,3.1340155E1,1.174942E0,1.4746567E1,9.226826E0,1.952674E1,0E0,1.7810287E0,1.7243652E0,5.06773E0,5.1702566E0,6.7774086E0,6.871187E0,1.3973602E1,1.0696182E0,1.356065E0,8.397827E-1,1.9902158E0,1.8750987E0,3.4763336E0,6.538604E0,3.9945083E0,2.8207169E0,3.7056742E0,3.665121E0,5.109683E0,5.8274555E0,1.2062685E1,0E0,0E0,0E0,0E0,0E0,0E0,0E0,0E0,0E0,0E0,0E0,0E0,0E0,0E0,0E0,0E0,0E0,0E0,0E0,0E0,0E0,0E0,0E0,0E0,0E0,0E0,0E0,0E0],"parents":[2147483647,0,0,1,1,2,2,3,3,4,4,5,5,6,6,8,8,9,9,10,10,11,11,12,12,13,13,14,14,15,15,16,16,17,17,18,18,19,19,20,20,21,21,22,22,23,23,24,24,25,25,26,26,27,27,28,28],"right_children":[2,4,6,8,10,12,14,-1,16,18,20,22,24,26,28,30,32,34,36,38,40,42,44,46,48,50,52,54,56,-1,-1,-1,-1,-1,-1,-1,-1,-1,-1,-1,-1,-1,-1,-1,-1,-1,-1,-1,-1,-1,-1,-1,-1,-1,-1,-1,-1],"split_conditions":[5E-1,5E-1,5E-1,5E-1,5E-1,1.65E1,5E-1,-8.582114E-2,5.7671504E3,5E-1,5E-1,3.655E1,9.8600006E1,5E-1,4.5E0,3.7075E1,5E-1,1.06425E2,5E-1,7.96105E3,2.55E1,2.1025E1,6.215E1,5E-1,4.45E1,5.255E1,1.1E2,5E-1,6.9975E1,-6.8220464E-3,-7.351032E-2,-5.1542427E-2,2.084573E-2,-8.4075704E-2,-5.9624046E-2,-6.685107E-2,-1.6986776E-2,-2.1330878E-2,5.0852064E-2,9.791603E-3,-7.3177986E-2,-2.923721E-3,-4.775988E-2,2.6847955E-2,-1.5867416E-2,-7.703485E-2,-3.953713E-2,1.0514026E-2,-4.9264424E-2,4.1838154E-2,-5.48415E-2,1.6980393E-2,-2.0800319E-2,5.7952274E-2,2.0795876E-2,-2.4996173E-2,1.1649187E-2],"split_indices":[33,29,24,34,34,4,6,0,8,24,30,7,7,18,4,8,24,7,15,8,4,8,7,38,4,8,8,9,7,0,0,0,0,0,0,0,0,0,0,0,0,0,0,0,0,0,0,0,0,0,0,0,0,0,0,0,0],"split_type":[0,0,0,0,0,0,0,0,0,0,0,0,0,0,0,0,0,0,0,0,0,0,0,0,0,0,0,0,0,0,0,0,0,0,0,0,0,0,0,0,0,0,0,0,0,0,0,0,0,0,0,0,0,0,0,0,0],"sum_hessian":[1.2716372E3,4.4432925E2,8.27308E2,2.26211E2,2.1811827E2,2.3839735E2,5.8891064E2,1.1261268E2,1.1359831E2,1.0256991E2,1.1554836E2,1.4646066E2,9.193669E1,1.5827298E2,4.3063766E2,1.0875527E2,4.8430443E0,8.037217E1,2.2197735E1,9.1760864E1,2.3787497E1,8.802224E1,5.8438423E1,6.648647E1,2.5450216E1,4.0257362E1,1.1801562E2,1.1622703E2,3.144106E2,1.779962E0,1.069753E2,2.4458003E0,2.3972442E0,5.2791573E1,2.7580599E1,1.2517309E1,9.680427E0,9.032074E1,1.4401278E0,3.553731E0,2.0233767E1,3.3534473E1,5.448777E1,2.107155E1,3.7366875E1,4.2912308E1,2.3574167E1,1.4836104E1,1.0614111E1,1.9714335E0,3.828593E1,3.0007936E1,8.8007675E1,4.4153408E1,7.207362E1,7.452069E1,2.3988994E2],"tree_param":{"num_deleted":"0","num_feature":"40","num_nodes":"57","size_leaf_vector":"0"}},{"base_weights":[-3.167316E-1,-7.6826596E-1,-8.174711E-2,-8.9653575E-1,-4.9106225E-1,-2.9147983E-1,7.5155936E-2,-9.724701E-1,-5.0142944E-1,-6.0340625E-1,-2.3633657E-1,-8.734242E-2,-4.7043866E-1,1.9950089E-1,-2.8402454E-1,-1.0535523E0,-8.607184E-1,9.1499776E-2,-8.1754595E-1,-2.6656339E-2,-6.8163276E-1,-4.778357E-1,3.176779E-2,-1.4359711E-1,5.3946346E-1,-1.6787341E-1,-5.826085E-1,3.7741995E-1,3.3065505E-2,-5.265732E-1,-6.1131164E-2,-1.4956436E-2,-8.735106E-1,-2.05625E-1,8.726944E-1,-8.5800785E-1,1.3469121E-1,-5.456263E-1,3.5377926E-1,-9.3683475E-1,-5.4849875E-1,-1.0186973E-1,-1.009424E0,5.8054835E-1,-2.1294299E-1,-3.1739426E-1,4.855284E-2,1.1223537E0,2.1335825E-1,-7.743564E-1,-7.162608E-2,-4.5957157E-1,-8.159409E-1,5.8820343E-1,1.9801344E-1,4.9150223E-1,-1.3715601E-1,-7.592414E-1,-1.0432269E-1,-3.6991763E-1,2.6497278E-1],"categories":[],"categories_nodes":[],"categories_segments":[],"categories_sizes":[],"default_left":[true,true,true,true,true,true,true,true,true,true,true,true,true,true,true,false,true,true,true,true,true,true,true,true,true,true,true,true,true,true,true,false,false,false,false,false,false,false,false,false,false,false,false,false,false,false,false,false,false,false,false,false,false,false,false,false,false,false,false,false,false],"id":17,"left_children":[1,3,5,7,9,11,13,15,17,19,21,23,25,27,29,-1,31,33,35,37,39,41,43,45,47,49,51,53,55,57,59,-1,-1,-1,-1,-1,-1,-1,-1,-1,-1,-1,-1,-1,-1,-1,-1,-1,-1,-1,-1,-1,-1,-1,-1,-1,-1,-1,-1,-1,-1],"loss_changes":[1.3248485E2,1.4759323E1,2.7096943E1,8.2439575E0,3.7905006E0,1.2829441E1,2.1112703E1,1.2954865E0,9.25545E0,4.2558594E0,2.8451562E0,5.9238358E0,6.2657967E0,1.0375357E1,6.544632E0,0E0,1.151741E0,4.3417053E0,1.3503685E0,2.6323187E0,2.318966E0,4.505404E0,3.0311685E0,5.1228085E0,2.396102E0,2.9867325E0,3.5404472E0,6.2915764E0,1.4296792E1,5.6313553E0,6.59557E0,0E0,0E0,0E0,0E0,0E0,0E0,0E0,0E0,0E0,0E0,0E0,0E0,0E0,0E0,0E0,0E0,0E0,0E0,0E0,0E0,0E0,0E0,0E0,0E0,0E0,0E0,0E0,0E0,0E0,0E0],"parents":[2147483647,0,0,1,1,2,2,3,3,4,4,5,5,6,6,7,7,8,8,9,9,10,10,11,11,12,12,13,13,14,14,16,16,17,17,18,18,19,19,20,20,21,21,22,22,23,23,24,24,25,25,26,26,27,27,28,28,29,29,30,30],"right_children":[2,4,6,8,10,12,14,16,18,20,22,24,26,28,30,-1,32,34,36,38,40,42,44,46,48,50,52,54,56,58,60,-1,-1,-1,-1,-1,-1,-1,-1,-1,-1,-1,-1,-1,-1,-1,-1,-1,-1,-1,-1,-1,-1,-1,-1,-1,-1,-1,-1,-1,-1],"split_conditions":[5E-1,5E-1,5E-1,1.032E2,5E-1,5.5E0,3.0836E3,5E-1,6.55145E3,2.35E1,5.45E1,5E-1,5E-1,5E-1,9.5575E1,-8.428418E-2,3.7075E1,5E-1,1.177E2,8.686E2,5E-1,4.35E1,5.753875E3,5E-1,4.365E1,2.855E1,2.25E1,5E-1,1.90275E2,5E-1,5E-1,-1.1965148E-3,-6.988084E-2,-1.6449999E-2,6.9815546E-2,-6.864063E-2,1.0775296E-2,-4.3650102E-2,2.830234E-2,-7.4946776E-2,-4.38799E-2,-8.149578E-3,-8.0753915E-2,4.644387E-2,-1.7035438E-2,-2.539154E-2,3.8842272E-3,8.9788295E-2,1.706866E-2,-6.194851E-2,-5.7300865E-3,-3.6765724E-2,-6.5275274E-2,4.7056273E-2,1.5841074E-2,3.932018E-2,-1.097248E-2,-6.0739312E-2,-8.345814E-3,-2.959341E-2,2.1197822E-2],"split_indices":[33,15,13,7,38,4,8,34,8,4,4,1,5,9,7,0,8,21,7,8,6,4,8,6,8,7,4,30,8,1,0,0,0,0,0,0,0,0,0,0,0,0,0,0,0,0,0,0,0,0,0,0,0,0,0,0,0,0,0,0,0],"split_type":[0,0,0,0,0,0,0,0,0,0,0,0,0,0,0,0,0,0,0,0,0,0,0,0,0,0,0,0,0,0,0,0,0,0,0,0,0,0,0,0,0,0,0,0,0,0,0,0,0,0,0,0,0,0,0,0,0,0,0,0,0],"sum_hessian":[1.2482289E3,4.2647214E2,8.2175684E2,2.9003204E2,1.3644008E2,3.513066E2,4.704502E2,2.4205156E2,4.798049E1,9.3731834E1,4.270825E1,1.648038E2,1.865028E2,3.4979794E2,1.20652245E2,1.3539049E2,1.06661064E2,1.693209E1,3.10484E1,1.135491E1,8.237692E1,2.2057417E1,2.0650833E1,1.5193849E2,1.28653E1,5.111706E1,1.3538574E2,1.6845369E2,1.8134427E2,5.712614E1,6.3526104E1,1.6215386E0,1.0503953E2,1.2800314E1,4.131776E0,2.9877808E1,1.1705933E0,4.619297E0,6.7356133E0,2.6171848E1,5.6205074E1,1.3617832E1,8.439585E0,5.945426E0,1.4705407E1,7.943698E1,7.250152E1,3.7395043E0,9.125795E0,6.03613E0,4.5080933E1,9.0588E1,4.4797745E1,7.640608E1,9.20476E1,4.859145E1,1.3275282E2,3.63168E1,2.0809343E1,3.256042E1,3.0965683E1],"tree_param":{"num_deleted":"0","num_feature":"40","num_nodes":"61","size_leaf_vector":"0"}},{"base_weights":[-2.9777977E-1,-7.3850924E-1,-7.593344E-2,-9.362317E-1,-5.490546E-1,-3.5277465E-1,3.5081178E-2,-9.90472E-1,-5.2652097E-1,-8.5125595E-1,-2.956514E-1,-2.0450297E-1,-5.889909E-1,-2.3516752E-1,1.3460349E-1,-1.0449425E-1,-9.9934775E-1,-7.650002E-1,4.303599E-2,-9.35931E-1,-5.1712143E-1,-1.9526966E-1,-6.130297E-1,-2.777196E-1,2.2917524E-1,-7.467782E-1,-1.8054149E-1,-5.624281E-1,-1.20560415E-1,2.3180845E-1,-1.4641604E-1,-1.0525191E0,-8.5738814E-1,2.475019E-2,-8.8466144E-1,2.70316E-1,-7.026217E-1,-1.0491096E0,-6.9506276E-1,-3.1658563E-1,-8.771689E-1,-1.5526548E-1,-7.547654E-1,-7.649311E-1,3.1980613E-1,-7.830528E-2,-4.39464E-1,4.5399633E-1,-5.5628574E-1,-9.0715027E-1,-4.3766922E-1,1.14594825E-1,-5.7271045E-1,5.048497E-1,-6.2967944E-1,1.07129894E-1,-2.7702898E-1,1.2475187E-1,6.178462E-1,-3.0675885E-1,1.5844364E-1],"categories":[],"categories_nodes":[],"categories_segments":[],"categories_sizes":[],"default_left":[true,true,true,true,true,true,true,true,true,true,true,true,true,true,true,false,true,true,true,true,true,true,true,true,true,true,true,true,true,true,true,false,false,false,false,false,false,false,false,false,false,false,false,false,false,false,false,false,false,false,false,false,false,false,false,false,false,false,false,false,false],"id":18,"left_children":[1,3,5,7,9,11,13,15,17,19,21,23,25,27,29,-1,31,33,35,37,39,41,43,45,47,49,51,53,55,57,59,-1,-1,-1,-1,-1,-1,-1,-1,-1,-1,-1,-1,-1,-1,-1,-1,-1,-1,-1,-1,-1,-1,-1,-1,-1,-1,-1,-1,-1,-1],"loss_changes":[1.1984423E2,1.4862274E1,2.5116E1,3.9105988E0,1.5986134E1,8.071199E0,1.573698E1,1.271637E0,3.4898944E0,2.237114E0,3.6034632E0,4.6748366E0,5.6437454E0,5.8404655E0,1.1709168E1,0E0,4.044342E-1,1.7222729E0,1.6233776E0,1.3289261E0,1.2876306E0,1.9028168E0,4.1574106E0,3.987649E0,4.0534577E0,2.7933617E0,3.110155E0,3.2309122E0,4.23153E0,1.30630455E1,5.4480004E0,0E0,0E0,0E0,0E0,0E0,0E0,0E0,0E0,0E0,0E0,0E0,0E0,0E0,0E0,0E0,0E0,0E0,0E0,0E0,0E0,0E0,0E0,0E0,0E0,0E0,0E0,0E0,0E0,0E0,0E0],"parents":[2147483647,0,0,1,1,2,2,3,3,4,4,5,5,6,6,7,7,8,8,9,9,10,10,11,11,12,12,13,13,14,14,16,16,17,17,18,18,19,19,20,20,21,21,22,22,23,23,24,24,25,25,26,26,27,27,28,28,29,29,30,30],"right_children":[2,4,6,8,10,12,14,16,18,20,22,24,26,28,30,-1,32,34,36,38,40,42,44,46,48,50,52,54,56,58,60,-1,-1,-1,-1,-1,-1,-1,-1,-1,-1,-1,-1,-1,-1,-1,-1,-1,-1,-1,-1,-1,-1,-1,-1,-1,-1,-1,-1,-1,-1],"split_conditions":[5E-1,5E-1,5E-1,5E-1,5E-1,1.65E1,5E-1,3.7075E1,8.025E1,5E-1,5E-1,8.0475E1,9.8600006E1,5E-1,3.05E1,-8.35954E-3,5E-1,1.25E1,5.978675E3,1.06425E2,5E-1,7.05E1,6.45E1,5E-1,1.0005E2,5E-1,4.45E1,5.255E1,2.43575E2,8.9425E1,9.5575E1,-8.420152E-2,-6.859105E-2,1.980015E-3,-7.0772916E-2,2.162528E-2,-5.6209736E-2,-8.3928764E-2,-5.560502E-2,-2.532685E-2,-7.017351E-2,-1.2421238E-2,-6.038123E-2,-6.1194487E-2,2.558449E-2,-6.2644226E-3,-3.5157118E-2,3.6319707E-2,-4.4502858E-2,-7.257202E-2,-3.5013538E-2,9.1675855E-3,-4.5816835E-2,4.0387973E-2,-5.0374355E-2,8.570392E-3,-2.2162318E-2,9.98015E-3,4.9427696E-2,-2.4540707E-2,1.2675491E-2],"split_indices":[33,32,24,38,34,4,6,8,7,24,27,7,7,18,4,0,12,4,8,7,37,4,4,0,7,38,4,8,8,7,7,0,0,0,0,0,0,0,0,0,0,0,0,0,0,0,0,0,0,0,0,0,0,0,0,0,0,0,0,0,0],"split_type":[0,0,0,0,0,0,0,0,0,0,0,0,0,0,0,0,0,0,0,0,0,0,0,0,0,0,0,0,0,0,0,0,0,0,0,0,0,0,0,0,0,0,0,0,0,0,0,0,0,0,0,0,0,0,0,0,0,0,0,0,0],"sum_hessian":[1.2252979E3,4.0947943E2,8.1581836E2,1.9843892E2,2.110405E2,2.3288551E2,5.8293286E2,1.7398773E2,2.4451193E1,9.517649E1,1.15864006E2,1.4422314E2,8.866236E1,1.5652708E2,4.264058E2,1.8524234E0,1.721353E2,1.6992931E1,7.458261E0,7.449675E1,2.0679743E1,8.925069E1,2.6613325E1,1.2369903E2,2.0524122E1,6.3358242E1,2.5304117E1,3.9584915E1,1.1694217E2,3.1694818E2,1.0945762E2,1.2056367E2,5.1571636E1,2.3403103E0,1.4652621E1,6.204561E0,1.2537E0,4.839943E1,2.609732E1,1.4489055E1,6.1906877E0,8.448731E1,4.7633686E0,2.3041311E1,3.572013E0,5.6063103E1,6.7635925E1,1.628492E1,4.239203E0,4.044159E1,2.2916653E1,1.4842114E1,1.0462002E1,1.9607613E0,3.7624153E1,4.7759182E1,6.918299E1,2.4917088E2,6.777729E1,7.172643E1,3.7731186E1],"tree_param":{"num_deleted":"0","num_feature":"40","num_nodes":"61","size_leaf_vector":"0"}},{"base_weights":[-2.799188E-1,-7.1009874E-1,-7.057915E-2,-9.121961E-1,-5.215306E-1,-2.3722109E-1,9.956862E-2,-9.68328E-1,-5.018152E-1,-8.239155E-1,-2.7642953E-1,-3.0867487E-1,1.479879E-1,-1.7732882E-1,1.8624175E-1,-9.941007E-2,-9.7751987E-1,-7.358805E-1,3.5137173E-2,-9.100491E-1,-4.9279386E-1,-1.8176623E-1,-5.8204156E-1,-1.7529301E-1,-5.3392667E-1,2.860519E-1,-4.63241E-1,-4.5216587E-1,-2.9802764E-2,5.7323253E-1,9.632163E-2,-1.0329751E0,-8.3135754E-1,2.3342393E-2,-8.561069E-1,7.89082E-1,-1.8196633E-1,-1.0280718E0,-6.652283E-1,-7.277684E-1,-1.9848125E-1,-1.4380059E-1,-7.243051E-1,-7.3180217E-1,2.9624426E-1,-2.3429771E-1,5.643186E-1,-7.903563E-1,-3.9130032E-1,6.134017E-2,6.9525254E-1,-9.0270144E-1,-1.0454834E-1,-6.732099E-1,-3.989379E-2,1.0613887E-1,-4.7369412E-1,7.532374E-1,3.0719292E-1,-3.468705E-1,1.8985143E-1],"categories":[],"categories_nodes":[],"categories_segments":[],"categories_sizes":[],"default_left":[true,true,true,true,true,true,true,true,true,true,true,true,true,true,true,false,true,true,true,true,true,true,true,true,true,true,true,true,true,true,true,false,false,false,false,false,false,false,false,false,false,false,false,false,false,false,false,false,false,false,false,false,false,false,false,false,false,false,false,false,false],"id":19,"left_children":[1,3,5,7,9,11,13,15,17,19,21,23,25,27,29,-1,31,33,35,37,39,41,43,45,47,49,51,53,55,57,59,-1,-1,-1,-1,-1,-1,-1,-1,-1,-1,-1,-1,-1,-1,-1,-1,-1,-1,-1,-1,-1,-1,-1,-1,-1,-1,-1,-1,-1,-1],"loss_changes":[1.0850072E2,1.4556946E1,2.304507E1,3.8693085E0,1.5069366E1,1.1344267E1,9.691574E0,1.2226105E0,3.1458611E0,2.172474E0,3.2356873E0,1.0319374E1,5.6097665E0,3.8972807E0,1.06276245E1,0E0,4.6565247E-1,1.6022015E0,1.5333744E0,1.3891258E0,1.318274E0,1.7422323E0,3.7499485E0,9.697047E0,4.3872185E0,4.8826766E0,1.8509684E0,3.0368814E0,3.902227E0,2.5308495E0,1.0441736E1,0E0,0E0,0E0,0E0,0E0,0E0,0E0,0E0,0E0,0E0,0E0,0E0,0E0,0E0,0E0,0E0,0E0,0E0,0E0,0E0,0E0,0E0,0E0,0E0,0E0,0E0,0E0,0E0,0E0,0E0],"parents":[2147483647,0,0,1,1,2,2,3,3,4,4,5,5,6,6,7,7,8,8,9,9,10,10,11,11,12,12,13,13,14,14,16,16,17,17,18,18,19,19,20,20,21,21,22,22,23,23,24,24,25,25,26,26,27,27,28,28,29,29,30,30],"right_children":[2,4,6,8,10,12,14,16,18,20,22,24,26,28,30,-1,32,34,36,38,40,42,44,46,48,50,52,54,56,58,60,-1,-1,-1,-1,-1,-1,-1,-1,-1,-1,-1,-1,-1,-1,-1,-1,-1,-1,-1,-1,-1,-1,-1,-1,-1,-1,-1,-1,-1,-1],"split_conditions":[5E-1,5E-1,5E-1,5E-1,5E-1,5E-1,5E-1,3.7075E1,8.025E1,5E-1,5E-1,1.65E1,4.75E1,5E-1,2.5E0,-7.952806E-3,5E-1,1.25E1,8.4225006E1,1.06425E2,5E-1,7.05E1,6.45E1,8.865E1,5E-1,5E-1,5E-1,8.2625E1,2.05E1,8.0425E1,5E-1,-8.2638E-2,-6.65086E-2,1.8673914E-3,-6.8488546E-2,6.312656E-2,-1.4557307E-2,-8.224574E-2,-5.3218264E-2,-5.822147E-2,-1.5878499E-2,-1.1504047E-2,-5.7944406E-2,-5.854417E-2,2.369954E-2,-1.8743817E-2,4.5145486E-2,-6.32285E-2,-3.1304024E-2,4.9072136E-3,5.56202E-2,-7.2216116E-2,-8.363867E-3,-5.385679E-2,-3.1915032E-3,8.491109E-3,-3.7895527E-2,6.0258992E-2,2.4575433E-2,-2.774964E-2,1.5188115E-2],"split_indices":[33,32,38,38,34,1,6,8,7,24,27,4,4,18,4,0,12,4,7,7,15,4,4,7,24,32,2,7,4,8,15,0,0,0,0,0,0,0,0,0,0,0,0,0,0,0,0,0,0,0,0,0,0,0,0,0,0,0,0,0,0],"split_type":[0,0,0,0,0,0,0,0,0,0,0,0,0,0,0,0,0,0,0,0,0,0,0,0,0,0,0,0,0,0,0,0,0,0,0,0,0,0,0,0,0,0,0,0,0,0,0,0,0,0,0,0,0,0,0,0,0,0,0,0,0],"sum_hessian":[1.2044009E3,3.934642E2,8.1093665E2,1.8806673E2,2.0539748E2,4.094899E2,4.0144672E2,1.6424213E2,2.382461E1,9.0896095E1,1.1450137E2,3.4558484E2,6.3905075E1,9.545323E1,3.0599347E2,1.842932E0,1.6239919E2,1.6333935E1,7.490674E0,7.074503E1,2.0151062E1,8.863993E1,2.5861448E1,2.1817291E2,1.2741193E2,5.2563965E1,1.134111E1,3.2619328E1,6.2833908E1,5.668073E1,2.4931276E2,1.1333257E2,4.9066612E1,2.343119E0,1.3990816E1,1.0857061E0,6.404968E0,4.5575027E1,2.5170006E1,1.038615E1,9.764912E0,8.402509E1,4.6148334E0,2.223657E1,3.6248782E0,2.0268623E2,1.5486676E1,4.391506E1,8.3496864E1,3.4673164E1,1.7890799E1,4.4151483E0,6.925962E0,2.0822302E1,1.1797024E1,4.868502E1,1.4148887E1,3.2714497E1,2.3966232E1,4.297352E1,2.0633923E2],"tree_param":{"num_deleted":"0","num_feature":"40","num_nodes":"61","size_leaf_vector":"0"}},{"base_weights":[-2.6292896E-1,-6.822425E-1,-6.5529756E-2,-8.8844126E-1,-4.9502796E-1,-3.1003165E-1,3.6398716E-2,-9.467564E-1,-4.755257E-1,-7.971232E-1,-2.5836554E-1,-2.542471E-1,-6.6611195E-1,-1.9616145E-1,1.1761303E-1,-9.4567396E-2,-9.5627815E-1,-7.07703E-1,3.7889767E-2,-8.847999E-1,-4.6881813E-1,-1.6915572E-1,-5.524136E-1,-3.1661966E-1,3.1476688E-1,-7.9774106E-1,-3.2738188E-1,6.1500713E-2,-3.5977653E-1,2.4912843E-1,-5.9095167E-2,-1.0141871E0,-8.057458E-1,-1.046667E0,-3.5482213E-1,2.4972686E-1,-6.7982E-1,-1.0078616E0,-6.362355E-1,-2.7103704E-1,-8.391342E-1,-1.906596E-1,6.803014E-1,-6.9986534E-1,2.74636E-1,8.054582E-3,-3.9542252E-1,7.106201E-1,-1.9735716E-1,-1.5848881E-1,-8.224784E-1,-8.423081E-1,5.720491E-1,-4.2661336E-1,3.6526075E-1,-7.768268E-1,-2.5157514E-1,3.4063175E-1,-2.6369017E-1,3.7671976E-2,-9.007111E-1],"categories":[],"categories_nodes":[],"categories_segments":[],"categories_sizes":[],"default_left":[true,true,true,true,true,true,true,true,true,true,true,true,true,true,true,false,true,true,true,true,true,true,true,true,true,true,true,true,true,true,true,false,false,false,false,false,false,false,false,false,false,false,false,false,false,false,false,false,false,false,false,false,false,false,false,false,false,false,false,false,false],"id":20,"left_children":[1,3,5,7,9,11,13,15,17,19,21,23,25,27,29,-1,31,33,35,37,39,41,43,45,47,49,51,53,55,57,59,-1,-1,-1,-1,-1,-1,-1,-1,-1,-1,-1,-1,-1,-1,-1,-1,-1,-1,-1,-1,-1,-1,-1,-1,-1,-1,-1,-1,-1,-1],"loss_changes":[9.8059685E1,1.4201187E1,2.0122284E1,3.865387E0,1.41675E1,4.5489845E0,1.07969475E1,1.1756897E0,2.9101386E0,2.1134453E0,2.9024901E0,7.445547E0,1.1457834E0,6.2622643E0,9.85476E0,0E0,5.270233E-1,1.6269941E0,1.4592602E0,1.4447212E0,1.284245E0,1.7566495E0,3.3803182E0,4.788431E0,4.3870077E0,2.1799374E-1,5.3571954E0,8.806135E0,3.8964586E0,1.1489635E1,1.481326E1,0E0,0E0,0E0,0E0,0E0,0E0,0E0,0E0,0E0,0E0,0E0,0E0,0E0,0E0,0E0,0E0,0E0,0E0,0E0,0E0,0E0,0E0,0E0,0E0,0E0,0E0,0E0,0E0,0E0,0E0],"parents":[2147483647,0,0,1,1,2,2,3,3,4,4,5,5,6,6,7,7,8,8,9,9,10,10,11,11,12,12,13,13,14,14,16,16,17,17,18,18,19,19,20,20,21,21,22,22,23,23,24,24,25,25,26,26,27,27,28,28,29,29,30,30],"right_children":[2,4,6,8,10,12,14,16,18,20,22,24,26,28,30,-1,32,34,36,38,40,42,44,46,48,50,52,54,56,58,60,-1,-1,-1,-1,-1,-1,-1,-1,-1,-1,-1,-1,-1,-1,-1,-1,-1,-1,-1,-1,-1,-1,-1,-1,-1,-1,-1,-1,-1,-1],"split_conditions":[5E-1,5E-1,5E-1,5E-1,5E-1,4.35E1,5E-1,3.7075E1,8.025E1,5E-1,5E-1,9.4350006E1,5E-1,2.56E2,5E-1,-7.5653917E-3,5E-1,5E-1,5.978675E3,1.06425E2,5E-1,7.96105E3,6.45E1,3.34E1,5E-1,1.810275E3,5E-1,4.5625E1,5.115E1,5E-1,2.536775E3,-8.113497E-2,-6.445966E-2,-8.373336E-2,-2.838577E-2,1.9978149E-2,-5.43856E-2,-8.0628924E-2,-5.0898835E-2,-2.1682963E-2,-6.713074E-2,-1.5252767E-2,5.4424115E-2,-5.5989224E-2,2.197088E-2,6.443666E-4,-3.16338E-2,5.6849606E-2,-1.5788572E-2,-1.2679105E-2,-6.5798275E-2,-6.7384645E-2,4.5763925E-2,-3.412907E-2,2.9220859E-2,-6.2146142E-2,-2.0126011E-2,2.725054E-2,-2.1095213E-2,3.013758E-3,-7.205689E-2],"split_indices":[33,32,15,38,34,4,6,8,7,24,27,7,1,8,9,0,12,0,8,7,37,8,4,8,0,8,18,7,7,3,8,0,0,0,0,0,0,0,0,0,0,0,0,0,0,0,0,0,0,0,0,0,0,0,0,0,0,0,0,0,0],"split_type":[0,0,0,0,0,0,0,0,0,0,0,0,0,0,0,0,0,0,0,0,0,0,0,0,0,0,0,0,0,0,0,0,0,0,0,0,0,0,0,0,0,0,0,0,0,0,0,0,0,0,0,0,0,0,0,0,0,0,0,0,0],"sum_hessian":[1.1842341E3,3.782669E2,8.059672E2,1.7822438E2,2.0004251E2,2.36535E2,5.6943225E2,1.5503612E2,2.3188267E1,8.6833275E1,1.1320924E2,2.0597966E2,3.0555336E1,1.4701994E2,4.224123E2,1.833911E0,1.5320221E2,1.5706869E1,7.481398E0,6.719359E1,1.9639685E1,8.806645E1,2.514279E1,1.8603137E2,1.9948288E1,2.102861E1,9.526726E0,5.7341793E1,8.967815E1,2.4193896E2,1.8047334E2,1.0649635E2,4.6705856E1,7.0086045E0,8.698265E0,6.2798934E0,1.2015045E0,4.2899666E1,2.4293922E1,1.3931145E1,5.708539E0,8.6648506E1,1.4179429E0,2.1468948E1,3.6738422E0,3.650902E1,1.4952235E2,1.1032767E1,8.915521E0,1.0593816E0,1.9969229E1,6.09871E0,3.4280152E0,2.1840961E1,3.550083E1,1.7200657E1,7.2477486E1,2.0559073E2,3.6348232E1,1.6271945E2,1.7753885E1],"tree_param":{"num_deleted":"0","num_feature":"40","num_nodes":"61","size_leaf_vector":"0"}},{"base_weights":[-2.4687155E-1,-6.5508324E-1,-6.098922E-2,-7.962733E-1,-3.7648845E-1,-3.0475333E-1,3.4901116E-2,-8.82509E-1,-3.9705253E-1,-6.4125586E-1,-2.605303E-1,-1.712862E-1,-5.235925E-1,-1.2898211E-1,1.601252E-1,-9.803149E-1,-7.571644E-1,1.4985546E-1,-7.221273E-1,6.999554E-1,-7.057938E-1,2.3621414E-2,-3.7568644E-1,5.7706465E-3,-3.2523128E-1,-6.7423975E-1,-1.5256882E-1,1.5527005E-1,-2.0383798E-1,2.2030234E-1,-1.5118411E-1,-9.990567E-1,-6.323874E-1,-8.195012E-1,-4.7276562E-1,-2.992032E-1,6.477742E-1,-9.785055E-1,-4.410363E-1,-9.8184824E-1,-3.5838434E-1,-1.9448094E-1,4.1071725E-1,-7.591372E-1,-1.6846728E-1,-2.0926568E-1,2.7157155E-1,2.51407E-1,-4.580578E-1,-8.2976353E-1,-3.9082822E-1,5.742707E-1,-3.1219628E-1,-1.8875335E-1,3.8991147E-1,-4.4208124E-1,-3.55696E-2,1.6109137E-1,7.0959777E-1,-5.276503E-1,1.0162958E-1],"categories":[],"categories_nodes":[],"categories_segments":[],"categories_sizes":[],"default_left":[true,true,true,true,true,true,true,true,true,true,true,true,true,true,true,true,true,true,true,false,true,true,true,true,true,true,true,true,true,true,true,false,false,false,false,false,false,false,false,false,false,false,false,false,false,false,false,false,false,false,false,false,false,false,false,false,false,false,false,false,false],"id":21,"left_children":[1,3,5,7,9,11,13,15,17,19,21,23,25,27,29,31,33,35,37,-1,39,41,43,45,47,49,51,53,55,57,59,-1,-1,-1,-1,-1,-1,-1,-1,-1,-1,-1,-1,-1,-1,-1,-1,-1,-1,-1,-1,-1,-1,-1,-1,-1,-1,-1,-1,-1,-1],"loss_changes":[8.8495255E1,1.4056107E1,1.877631E1,7.957443E0,3.659912E0,6.5332947E0,1.1863338E1,1.680603E0,8.052601E0,3.720973E0,2.9004693E0,3.8815536E0,4.6713905E0,5.3618994E0,6.1697817E0,6.996155E-2,1.2261162E0,4.1037574E0,1.6005754E0,0E0,3.1070614E0,2.3108926E0,4.873497E0,3.8967254E0,5.9480906E0,2.3405151E0,3.1911368E0,4.33455E0,7.950739E0,7.850236E0,5.160289E0,0E0,0E0,0E0,0E0,0E0,0E0,0E0,0E0,0E0,0E0,0E0,0E0,0E0,0E0,0E0,0E0,0E0,0E0,0E0,0E0,0E0,0E0,0E0,0E0,0E0,0E0,0E0,0E0,0E0,0E0],"parents":[2147483647,0,0,1,1,2,2,3,3,4,4,5,5,6,6,7,7,8,8,9,9,10,10,11,11,12,12,13,13,14,14,15,15,16,16,17,17,18,18,20,20,21,21,22,22,23,23,24,24,25,25,26,26,27,27,28,28,29,29,30,30],"right_children":[2,4,6,8,10,12,14,16,18,20,22,24,26,28,30,32,34,36,38,-1,40,42,44,46,48,50,52,54,56,58,60,-1,-1,-1,-1,-1,-1,-1,-1,-1,-1,-1,-1,-1,-1,-1,-1,-1,-1,-1,-1,-1,-1,-1,-1,-1,-1,-1,-1,-1,-1],"split_conditions":[5E-1,5E-1,5E-1,1.032E2,5E-1,1.65E1,5E-1,5E-1,6.55145E3,3.5050003E1,4.35E1,5E-1,9.8600006E1,1.53675E2,3.068325E3,5E-1,5E-1,5.519075E3,5E-1,5.5996433E-2,8.3875E1,5E-1,4.9832E3,2.9474998E1,2.0225E1,5E-1,1.002E2,4.565E1,7.3675E1,9.4975E1,4.04315E3,-7.992453E-2,-5.0590992E-2,-6.5560095E-2,-3.782125E-2,-2.3936255E-2,5.1821936E-2,-7.8280434E-2,-3.5282906E-2,-7.854786E-2,-2.8670747E-2,-1.5558475E-2,3.285738E-2,-6.0730975E-2,-1.3477382E-2,-1.6741253E-2,2.1725724E-2,2.011256E-2,-3.6644623E-2,-6.638108E-2,-3.1266257E-2,4.594166E-2,-2.4975702E-2,-1.5100268E-2,3.1192917E-2,-3.5366498E-2,-2.845568E-3,1.2887309E-2,5.676782E-2,-4.2212024E-2,8.130366E-3],"split_indices":[33,15,24,7,6,4,38,34,8,7,4,0,7,8,8,1,38,8,0,0,7,38,8,7,8,38,7,7,7,7,8,0,0,0,0,0,0,0,0,0,0,0,0,0,0,0,0,0,0,0,0,0,0,0,0,0,0,0,0,0,0],"split_type":[0,0,0,0,0,0,0,0,0,0,0,0,0,0,0,0,0,0,0,0,0,0,0,0,0,0,0,0,0,0,0,0,0,0,0,0,0,0,0,0,0,0,0,0,0,0,0,0,0,0,0,0,0,0,0,0,0,0,0,0,0],"sum_hessian":[1.1657892E3,3.6396664E2,8.018226E2,2.4031728E2,1.23649376E2,2.2575348E2,5.760691E2,1.9663216E2,4.3685112E1,3.6280346E1,8.736903E1,1.4133675E2,8.441673E1,2.4950586E2,3.2656326E2,1.0661775E2,9.001441E1,1.6486734E1,2.719838E1,1.2136168E0,3.5066727E1,2.5425535E1,6.1943497E1,6.61817E1,7.515504E1,5.9457767E1,2.4958967E1,5.178543E1,1.9772043E2,2.739082E2,5.2655064E1,9.939234E1,7.2254057E0,7.228819E1,1.7726221E1,8.878532E0,7.6082015E0,1.2926889E1,1.4271489E1,1.8522442E1,1.6544285E1,1.6580906E1,8.84463E0,2.0796658E1,4.1146835E1,3.6702007E1,2.9479696E1,1.39034395E1,6.1251595E1,3.714594E1,2.231183E1,4.026651E0,2.0932316E1,2.107765E1,3.0707779E1,8.116934E1,1.1655108E2,2.455257E2,2.8382504E1,2.0717466E1,3.19376E1],"tree_param":{"num_deleted":"0","num_feature":"40","num_nodes":"61","size_leaf_vector":"0"}},{"base_weights":[-2.3163119E-1,-6.2826616E-1,-5.6625225E-2,-8.4411514E-1,-4.4180235E-1,-2.8426746E-1,3.22514E-2,-9.0658593E-1,-4.2945305E-1,-7.492308E-1,-2.138396E-1,-1.5870842E-1,-4.9314746E-1,-1.9030625E-1,1.1389645E-1,-5.470283E-2,-9.1705716E-1,-6.606913E-1,5.427013E-2,-8.4163886E-1,-4.1671354E-1,-1.3270508E-1,-4.9171764E-1,-2.5495556E-1,9.479341E-2,-7.297401E-1,-2.5805455E-1,-4.8928154E-1,-8.6947694E-2,4.5603752E-1,5.2281514E-2,-9.807006E-1,-7.554257E-1,-1.0137494E0,-3.0935314E-1,2.5835252E-1,-6.702682E-1,-9.7427034E-1,-5.863404E-1,-2.2225995E-1,-7.986103E-1,-9.569301E-2,-6.793481E-1,-6.4229935E-1,3.04781E-1,9.59844E-2,-3.588472E-1,-3.1916223E-2,7.8047955E-1,-9.0279037E-1,-4.5793447E-1,-2.7505882E-2,-5.199633E-1,4.967893E-1,-5.539282E-1,1.9295488E-1,-1.8453105E-1,3.514618E-1,1.0952228E0,-2.3216954E-1,1.4193468E-1],"categories":[],"categories_nodes":[],"categories_segments":[],"categories_sizes":[],"default_left":[true,true,true,true,true,true,true,true,true,true,true,true,true,true,true,false,true,true,true,true,true,true,true,true,true,true,true,true,true,true,true,false,false,false,false,false,false,false,false,false,false,false,false,false,false,false,false,false,false,false,false,false,false,false,false,false,false,false,false,false,false],"id":22,"left_children":[1,3,5,7,9,11,13,15,17,19,21,23,25,27,29,-1,31,33,35,37,39,41,43,45,47,49,51,53,55,57,59,-1,-1,-1,-1,-1,-1,-1,-1,-1,-1,-1,-1,-1,-1,-1,-1,-1,-1,-1,-1,-1,-1,-1,-1,-1,-1,-1,-1,-1,-1],"loss_changes":[7.969461E1,1.3776215E1,1.615593E1,3.8029556E0,1.3205265E1,5.8017044E0,1.0467667E1,1.1964264E0,2.6185303E0,2.1321335E0,2.4352307E0,3.476627E0,4.466976E0,4.7369137E0,8.855759E0,0E0,6.786041E-1,1.633563E0,1.4140309E0,1.5365791E0,1.274517E0,1.6995264E0,3.1576238E0,3.7836905E0,3.4714317E0,1.5229607E0,2.614053E0,2.7942677E0,3.2080884E0,3.903037E0,9.164276E0,0E0,0E0,0E0,0E0,0E0,0E0,0E0,0E0,0E0,0E0,0E0,0E0,0E0,0E0,0E0,0E0,0E0,0E0,0E0,0E0,0E0,0E0,0E0,0E0,0E0,0E0,0E0,0E0,0E0,0E0],"parents":[2147483647,0,0,1,1,2,2,3,3,4,4,5,5,6,6,7,7,8,8,9,9,10,10,11,11,12,12,13,13,14,14,16,16,17,17,18,18,19,19,20,20,21,21,22,22,23,23,24,24,25,25,26,26,27,27,28,28,29,29,30,30],"right_children":[2,4,6,8,10,12,14,16,18,20,22,24,26,28,30,-1,32,34,36,38,40,42,44,46,48,50,52,54,56,58,60,-1,-1,-1,-1,-1,-1,-1,-1,-1,-1,-1,-1,-1,-1,-1,-1,-1,-1,-1,-1,-1,-1,-1,-1,-1,-1,-1,-1,-1,-1],"split_conditions":[5E-1,5E-1,5E-1,5E-1,5E-1,1.65E1,5E-1,3.7075E1,8.025E1,5E-1,5E-1,5E-1,5E-1,5E-1,1.084E2,-4.376226E-3,5E-1,5E-1,5E-1,1.06425E2,5E-1,7.05E1,6.45E1,2.0225E1,8.3600006E1,2.95E1,5E-1,5.255E1,1.1E2,9.0225E1,6.9975E1,-7.8456044E-2,-6.0434055E-2,-8.109995E-2,-2.474825E-2,2.0668201E-2,-5.3621452E-2,-7.794163E-2,-4.6907235E-2,-1.7780796E-2,-6.3888825E-2,-7.6554404E-3,-5.4347847E-2,-5.1383946E-2,2.438248E-2,7.678752E-3,-2.8707776E-2,-2.553298E-3,6.243836E-2,-7.222323E-2,-3.6634758E-2,-2.2004705E-3,-4.1597065E-2,3.9743144E-2,-4.4314254E-2,1.543639E-2,-1.4762484E-2,2.8116943E-2,8.761782E-2,-1.8573564E-2,1.1354774E-2],"split_indices":[33,32,24,38,34,4,6,8,7,24,27,30,11,18,8,0,12,0,1,7,37,4,4,8,7,4,0,8,8,8,7,0,0,0,0,0,0,0,0,0,0,0,0,0,0,0,0,0,0,0,0,0,0,0,0,0,0,0,0,0,0],"split_type":[0,0,0,0,0,0,0,0,0,0,0,0,0,0,0,0,0,0,0,0,0,0,0,0,0,0,0,0,0,0,0,0,0,0,0,0,0,0,0,0,0,0,0,0,0,0,0,0,0,0,0,0,0,0,0,0,0,0,0,0,0],"sum_hessian":[1.1476266E3,3.5054913E2,7.970774E2,1.6083775E2,1.8971138E2,2.2319731E2,5.7388007E2,1.3874832E2,2.2089422E1,7.980306E1,1.0990831E2,1.4050107E2,8.2696236E1,1.5366664E2,4.2021344E2,1.7603446E0,1.3698798E2,1.4697572E1,7.391851E0,6.1250237E1,1.8552828E1,8.621339E1,2.3694925E1,1.0183254E2,3.8668526E1,4.0167973E1,4.2528263E1,3.8517365E1,1.1514928E2,6.3149532E1,3.5706393E2,9.465104E1,4.2336945E1,6.3904476E0,8.307124E0,6.2693677E0,1.1224829E0,3.84557E1,2.2794538E1,1.3341576E1,5.211252E0,8.184677E1,4.3666196E0,2.009035E1,3.6045766E0,2.3277756E1,7.855479E1,3.3442127E1,5.2263994E0,2.312411E1,1.7043863E1,2.3205946E1,1.9322317E1,1.9585453E0,3.655882E1,2.951443E1,8.563485E1,5.56024E1,7.547129E0,8.518855E1,2.7187537E2],"tree_param":{"num_deleted":"0","num_feature":"40","num_nodes":"61","size_leaf_vector":"0"}},{"base_weights":[-2.1722977E-1,-6.024965E-1,-5.2445956E-2,-8.216444E-1,-4.1846555E-1,-1.893336E-1,8.5506015E-2,-8.859303E-1,-4.1013345E-1,-7.238019E-1,-1.9958745E-1,-2.543235E-1,1.5365016E-1,-1.1016104E-1,1.8029541E-1,-6.604241E-1,-9.5105916E-1,-6.359174E-1,4.5600455E-2,-9.138998E-1,-5.471688E-1,-1.23451926E-1,-4.656197E-1,-1.3984476E-1,-4.539633E-1,2.8256622E-1,-4.240082E-1,-3.9843512E-1,1.6959852E-2,1.9886588E-1,-1.1410797E0,-7.395538E-1,9.192099E-1,-1.0076201E0,-7.819907E-1,1.168961E-1,-7.6914215E-1,7.4045724E-1,-1.6309431E-1,2.0204522E-1,-9.6231043E-1,-3.462175E-1,-9.7854817E-1,-1.4500591E-1,6.907036E-1,-6.132541E-1,2.8247312E-1,-1.9309676E-1,5.2339286E-1,-9.4414866E-1,-3.8525707E-1,1.7737517E-1,1.065932E0,-1.0165559E0,-1.5653647E-1,7.277452E-2,-6.1959237E-1,2.8801107E-1,-2.768164E-1,3.4296378E-1,7.345425E-2],"categories":[],"categories_nodes":[],"categories_segments":[],"categories_sizes":[],"default_left":[true,true,true,true,true,true,true,true,true,true,true,true,true,true,true,true,true,true,true,true,true,true,true,true,true,true,true,true,true,true,false,false,false,false,false,false,false,false,false,false,false,false,false,false,false,false,false,false,false,false,false,false,false,false,false,false,false,false,false,false,false],"id":23,"left_children":[1,3,5,7,9,11,13,15,17,19,21,23,25,27,29,31,33,35,37,39,41,43,45,47,49,51,53,55,57,59,-1,-1,-1,-1,-1,-1,-1,-1,-1,-1,-1,-1,-1,-1,-1,-1,-1,-1,-1,-1,-1,-1,-1,-1,-1,-1,-1,-1,-1,-1,-1],"loss_changes":[7.181785E1,1.332608E1,1.5006067E1,3.702057E0,1.2304554E1,8.927261E0,7.3654137E0,1.3113174E0,2.3571053E0,2.0987015E0,2.1680684E0,7.6065025E0,4.8964977E0,4.765903E0,6.783078E0,4.78765E0,1.7010498E-1,1.614038E0,1.3430536E0,2.1276627E0,3.3549662E0,1.6231875E0,2.8336473E0,7.685339E0,3.7404404E0,4.1815886E0,1.7590616E0,4.1910357E0,7.3327055E0,4.7516003E0,0E0,0E0,0E0,0E0,0E0,0E0,0E0,0E0,0E0,0E0,0E0,0E0,0E0,0E0,0E0,0E0,0E0,0E0,0E0,0E0,0E0,0E0,0E0,0E0,0E0,0E0,0E0,0E0,0E0,0E0,0E0],"parents":[2147483647,0,0,1,1,2,2,3,3,4,4,5,5,6,6,7,7,8,8,9,9,10,10,11,11,12,12,13,13,14,14,15,15,16,16,17,17,18,18,19,19,20,20,21,21,22,22,23,23,24,24,25,25,26,26,27,27,28,28,29,29],"right_children":[2,4,6,8,10,12,14,16,18,20,22,24,26,28,30,32,34,36,38,40,42,44,46,48,50,52,54,56,58,60,-1,-1,-1,-1,-1,-1,-1,-1,-1,-1,-1,-1,-1,-1,-1,-1,-1,-1,-1,-1,-1,-1,-1,-1,-1,-1,-1,-1,-1,-1,-1],"split_conditions":[5E-1,5E-1,5E-1,5E-1,5E-1,5E-1,5E-1,2.55E1,8.025E1,9.2425E1,5E-1,1.65E1,4.75E1,5E-1,5.85E1,1.538925E3,5E-1,1.25E1,8.4225006E1,4.94E1,7.7555996E3,7.96105E3,6.45E1,8.865E1,8.5285E2,3.75E1,7.8075E1,1.662E2,2.626375E3,5.64E2,-9.128637E-2,-5.9164304E-2,7.353679E-2,-8.0609605E-2,-6.2559254E-2,9.3516875E-3,-6.1531372E-2,5.923658E-2,-1.3047544E-2,1.6163617E-2,-7.698483E-2,-2.7697401E-2,-7.8283854E-2,-1.1600473E-2,5.5256285E-2,-4.9060326E-2,2.259785E-2,-1.544774E-2,4.187143E-2,-7.553189E-2,-3.0820565E-2,1.41900135E-2,8.527456E-2,-8.132447E-2,-1.2522917E-2,5.8219614E-3,-4.956739E-2,2.3040885E-2,-2.214531E-2,2.7437102E-2,5.87634E-3],"split_indices":[33,32,38,38,34,1,18,4,7,7,27,4,4,13,4,8,26,4,7,7,8,8,4,7,8,4,7,8,8,8,0,0,0,0,0,0,0,0,0,0,0,0,0,0,0,0,0,0,0,0,0,0,0,0,0,0,0,0,0,0,0],"split_type":[0,0,0,0,0,0,0,0,0,0,0,0,0,0,0,0,0,0,0,0,0,0,0,0,0,0,0,0,0,0,0,0,0,0,0,0,0,0,0,0,0,0,0,0,0,0,0,0,0,0,0,0,0,0,0,0,0,0,0,0,0],"sum_hessian":[1.1307418E3,3.379512E2,7.9279065E2,1.5267633E2,1.8527486E2,3.9774344E2,3.9504724E2,1.3105081E2,2.1625519E1,7.6395615E1,1.0887924E2,3.3460052E2,6.314292E1,1.288693E2,2.6617795E2,3.1863808E1,9.9187E1,1.41966915E1,7.4288273E0,3.4784985E1,4.1610634E1,8.579088E1,2.3088366E1,2.1373799E2,1.2086253E2,5.2039993E1,1.1102926E1,3.878397E1,9.008533E1,2.633267E2,2.8512628E0,3.0850225E1,1.0135822E0,7.060623E1,2.858077E1,2.1530442E0,1.2043647E1,1.1273234E0,6.3015037E0,1.3143135E0,3.347067E1,2.9616732E1,1.1993902E1,8.437892E1,1.4119563E0,1.9433462E1,3.6549041E0,1.985084E2,1.5229578E1,1.3291607E1,1.0757093E2,4.696052E1,5.079472E0,2.582075E0,8.520851E0,1.2602767E1,2.6181202E1,4.6865097E1,4.3220226E1,1.21727325E2,1.4159935E2],"tree_param":{"num_deleted":"0","num_feature":"40","num_nodes":"61","size_leaf_vector":"0"}},{"base_weights":[-2.0363322E-1,-5.767904E-1,-4.8816696E-2,-7.255194E-1,-3.035857E-1,-2.5469542E-1,3.5146356E-2,-8.1871766E-1,-3.314169E-1,-5.6715775E-1,-1.9268607E-1,-2.0143847E-1,-5.989692E-1,1.4368998E-1,-9.408336E-2,-9.302231E-1,-6.841314E-1,1.6883117E-1,-6.556305E-1,-8.0886585E-1,-9.5137E-2,7.543598E-2,-3.0507484E-1,-2.5720146E-1,2.958824E-1,-7.262434E-1,-2.8310677E-1,3.2637587E-1,-1.3549097E-2,-2.9654786E-2,-7.5329053E-1,-9.523955E-1,-5.430734E-1,-5.835784E-1,-9.0716076E-1,-1.1530364E-1,8.6786544E-1,-9.315249E-1,-3.6537462E-1,-8.711094E-1,3.211449E-2,-5.266505E-1,2.7169776E-1,-1.2750751E-1,4.1447702E-1,-6.91715E-1,-1.0744745E-1,3.0087137E-1,-3.0433765E-1,6.551527E-1,-1.6655666E-1,-5.0088435E-1,-8.440202E-1,-7.855339E-1,5.5940706E-1,4.139622E-1,-2.2530043E-1,-4.1655648E-1,9.946937E-2,-6.291653E-2,1.095015E0,-4.0199164E-1,-1.0392488E0],"categories":[],"categories_nodes":[],"categories_segments":[],"categories_sizes":[],"default_left":[true,true,true,true,true,true,true,true,true,true,true,true,true,true,true,true,true,true,true,true,true,true,true,true,true,true,true,true,true,true,true,false,false,false,false,false,false,false,false,false,false,false,false,false,false,false,false,false,false,false,false,false,false,false,false,false,false,false,false,false,false,false,false],"id":24,"left_children":[1,3,5,7,9,11,13,15,17,19,21,23,25,27,29,31,33,35,37,39,41,43,45,47,49,51,53,55,57,59,61,-1,-1,-1,-1,-1,-1,-1,-1,-1,-1,-1,-1,-1,-1,-1,-1,-1,-1,-1,-1,-1,-1,-1,-1,-1,-1,-1,-1,-1,-1,-1,-1],"loss_changes":[6.440548E1,1.3064987E1,1.3654285E1,7.4780655E0,3.3097115E0,4.07425E0,7.8908987E0,1.9141083E0,6.9277105E0,3.8164816E0,2.5495281E0,5.6127634E0,1.006237E0,8.78337E0,1.08915415E1,2.5676727E-1,1.2823448E0,3.5409448E0,1.7183285E0,1.2023764E0,2.151862E0,1.811936E0,4.455078E0,4.8279696E0,3.5306106E0,1.3058567E-1,4.7980556E0,6.9260445E0,7.566196E0,8.864743E0,1.8764687E0,0E0,0E0,0E0,0E0,0E0,0E0,0E0,0E0,0E0,0E0,0E0,0E0,0E0,0E0,0E0,0E0,0E0,0E0,0E0,0E0,0E0,0E0,0E0,0E0,0E0,0E0,0E0,0E0,0E0,0E0,0E0,0E0],"parents":[2147483647,0,0,1,1,2,2,3,3,4,4,5,5,6,6,7,7,8,8,9,9,10,10,11,11,12,12,13,13,14,14,15,15,16,16,17,17,18,18,19,19,20,20,21,21,22,22,23,23,24,24,25,25,26,26,27,27,28,28,29,29,30,30],"right_children":[2,4,6,8,10,12,14,16,18,20,22,24,26,28,30,32,34,36,38,40,42,44,46,48,50,52,54,56,58,60,62,-1,-1,-1,-1,-1,-1,-1,-1,-1,-1,-1,-1,-1,-1,-1,-1,-1,-1,-1,-1,-1,-1,-1,-1,-1,-1,-1,-1,-1,-1,-1,-1],"split_conditions":[5E-1,5E-1,5E-1,1.032E2,5E-1,4.35E1,5E-1,5E-1,6.55145E3,5E-1,4.35E1,9.4350006E1,5E-1,1.65E1,2.536775E3,5E-1,5E-1,5E-1,5E-1,1.08274994E2,5E-1,5E-1,4.9832E3,5E-1,5E-1,5E-1,5E-1,5E-1,7.4775E1,2.29175E3,8.9600006E1,-7.619164E-2,-4.3445874E-2,-4.6686273E-2,-7.257286E-2,-9.224291E-3,6.942923E-2,-7.452199E-2,-2.9229969E-2,-6.968875E-2,2.5691593E-3,-4.213204E-2,2.173582E-2,-1.02006E-2,3.315816E-2,-5.5337198E-2,